{"learner":{"attributes":{"scikit_learn":"{\"_estimator_type\": \"classifier\"}"},"feature_names":[],"feature_types":[],"gradient_booster":{"model":{"cats":{"enc":[],"feature_segments":[],"sorted_idx":[]},"gbtree_model_param":{"num_parallel_tree":"1","num_trees":"400"},"iteration_indptr":[0,1,2,3,4,5,6,7,8,9,10,11,12,13,14,15,16,17,18,19,20,21,22,23,24,25,26,27,28,29,30,31,32,33,34,35,36,37,38,39,40,41,42,43,44,45,46,47,48,49,50,51,52,53,54,55,56,57,58,59,60,61,62,63,64,65,66,67,68,69,70,71,72,73,74,75,76,77,78,79,80,81,82,83,84,85,86,87,88,89,90,91,92,93,94,95,96,97,98,99,100,101,102,103,104,105,106,107,108,109,110,111,112,113,114,115,116,117,118,119,120,121,122,123,124,125,126,127,128,129,130,131,132,133,134,135,136,137,138,139,140,141,142,143,144,145,146,147,148,149,150,151,152,153,154,155,156,157,158,159,160,161,162,163,164,165,166,167,168,169,170,171,172,173,174,175,176,177,178,179,180,181,182,183,184,185,186,187,188,189,190,191,192,193,194,195,196,197,198,199,200,201,202,203,204,205,206,207,208,209,210,211,212,213,214,215,216,217,218,219,220,221,222,223,224,225,226,227,228,229,230,231,232,233,234,235,236,237,238,239,240,241,242,243,244,245,246,247,248,249,250,251,252,253,254,255,256,257,258,259,260,261,262,263,264,265,266,267,268,269,270,271,272,273,274,275,276,277,278,279,280,281,282,283,284,285,286,287,288,289,290,291,292,293,294,295,296,297,298,299,300,301,302,303,304,305,306,307,308,309,310,311,312,313,314,315,316,317,318,319,320,321,322,323,324,325,326,327,328,329,330,331,332,333,334,335,336,337,338,339,340,341,342,343,344,345,346,347,348,349,350,351,352,353,354,355,356,357,358,359,360,361,362,363,364,365,366,367,368,369,370,371,372,373,374,375,376,377,378,379,380,381,382,383,384,385,386,387,388,389,390,391,392,393,394,395,396,397,398,399,400],"tree_info":[0,0,0,0,0,0,0,0,0,0,0,0,0,0,0,0,0,0,0,0,0,0,0,0,0,0,0,0,0,0,0,0,0,0,0,0,0,0,0,0,0,0,0,0,0,0,0,0,0,0,0,0,0,0,0,0,0,0,0,0,0,0,0,0,0,0,0,0,0,0,0,0,0,0,0,0,0,0,0,0,0,0,0,0,0,0,0,0,0,0,0,0,0,0,0,0,0,0,0,0,0,0,0,0,0,0,0,0,0,0,0,0,0,0,0,0,0,0,0,0,0,0,0,0,0,0,0,0,0,0,0,0,0,0,0,0,0,0,0,0,0,0,0,0,0,0,0,0,0,0,0,0,0,0,0,0,0,0,0,0,0,0,0,0,0,0,0,0,0,0,0,0,0,0,0,0,0,0,0,0,0,0,0,0,0,0,0,0,0,0,0,0,0,0,0,0,0,0,0,0,0,0,0,0,0,0,0,0,0,0,0,0,0,0,0,0,0,0,0,0,0,0,0,0,0,0,0,0,0,0,0,0,0,0,0,0,0,0,0,0,0,0,0,0,0,0,0,0,0,0,0,0,0,0,0,0,0,0,0,0,0,0,0,0,0,0,0,0,0,0,0,0,0,0,0,0,0,0,0,0,0,0,0,0,0,0,0,0,0,0,0,0,0,0,0,0,0,0,0,0,0,0,0,0,0,0,0,0,0,0,0,0,0,0,0,0,0,0,0,0,0,0,0,0,0,0,0,0,0,0,0,0,0,0,0,0,0,0,0,0,0,0,0,0,0,0,0,0,0,0,0,0,0,0,0,0,0,0,0,0,0,0,0,0,0,0,0,0,0,0,0,0,0,0,0,0,0,0,0,0,0,0,0,0,0,0,0,0,0,0,0,0,0,0,0,0,0,0,0,0],"trees":[{"base_weights":[1.1706757E-3,-2.0715923E0,1.7626872E0,-2.1302645E0,-6.8836266E-1,4.6312857E-1,9.106282E-2,-1.0848456E-1,-1.6250007E0,-9.1018087E-1,4.4440005E-2,6.3424015E-1,-6.550034E-2,-1.3100167E-2,-8.648832E-2,3.4953173E-2,-5.4812986E-2,5.758301E-2,1.1311733E-2],"categories":[],"categories_nodes":[],"categories_segments":[],"categories_sizes":[],"default_left":[0,0,0,0,0,0,0,0,0,0,0,0,0,0,0,0,0,0,0],"id":0,"left_children":[1,3,5,7,9,11,-1,-1,13,15,-1,17,-1,-1,-1,-1,-1,-1,-1],"loss_changes":[3.6382827E3,3.56864E1,4.0157227E1,5.213135E0,7.8426247E0,8.285889E0,0E0,0E0,4.649826E0,6.192384E0,0E0,4.612423E0,0E0,0E0,0E0,0E0,0E0,0E0,0E0],"parents":[2147483647,0,0,1,1,2,2,3,3,4,4,5,5,8,8,9,9,11,11],"right_children":[2,4,6,8,10,12,-1,-1,14,16,-1,18,-1,-1,-1,-1,-1,-1,-1],"split_conditions":[9.8087597E-1,5.9286547E-1,9.980732E-1,1.798621E-2,5.0277777E0,4.8E1,9.106282E-2,-1.0848456E-1,2.9755934E1,3.25E0,4.4440005E-2,8.695652E-1,-6.550034E-2,-1.3100167E-2,-8.648832E-2,3.4953173E-2,-5.4812986E-2,5.758301E-2,1.1311733E-2],"split_indices":[0,0,0,0,7,16,0,0,2,7,0,4,0,0,0,0,0,0,0],"split_type":[0,0,0,0,0,0,0,0,0,0,0,0,0,0,0,0,0,0,0],"sum_hessian":[9.9446045E2,4.5678687E2,5.376736E2,4.376817E2,1.9105154E1,2.3571293E1,5.141023E2,4.0294507E2,3.473664E1,1.7120203E1,1.984951E0,2.208258E1,1.4887133E0,2.7293077E0,3.2007336E1,1.4887133E0,1.5631489E1,8.93228E0,1.3150301E1],"tree_param":{"num_deleted":"0","num_feature":"28","num_nodes":"19","size_leaf_vector":"1"}},{"base_weights":[6.416027E-3,1.4873753E0,-8.553148E-1,1.64813E0,8.174002E-1,-2.0673354E-1,-1.5760193E0,1.6573567E0,-1.5316558E-2,1.1707181E0,-2.8941193E-1,5.9611464E-1,-1.0076244E0,-1.7996447E0,6.9818366E-1,8.6214036E-2,6.677605E-2,-1.2042105E-2,6.1703797E-2,-8.0468535E-2,6.291808E-2,5.1061776E-2,7.046608E-3,-5.6327015E-2,6.271014E-2,9.410459E-3,-9.2311434E-2,6.804989E-2,-5.938896E-2],"categories":[],"categories_nodes":[],"categories_segments":[],"categories_sizes":[],"default_left":[0,0,0,0,0,0,0,0,0,0,0,0,0,0,0,0,0,0,0,0,0,0,0,0,0,0,0,0,0],"id":1,"left_children":[1,3,5,7,9,11,13,15,-1,17,19,21,23,25,27,-1,-1,-1,-1,-1,-1,-1,-1,-1,-1,-1,-1,-1,-1],"loss_changes":[1.2826298E3,3.84693E1,2.9666275E2,5.866638E0,2.9090603E1,2.1636523E2,1.5423163E2,4.071167E0,0E0,5.2992935E0,4.0010105E1,3.2404953E1,4.669565E1,2.5733826E1,3.618029E1,0E0,0E0,0E0,0E0,0E0,0E0,0E0,0E0,0E0,0E0,0E0,0E0,0E0,0E0],"parents":[2147483647,0,0,1,1,2,2,3,3,4,4,5,5,6,6,7,7,9,9,10,10,11,11,12,12,13,13,14,14],"right_children":[2,4,6,8,10,12,14,16,-1,18,20,22,24,26,28,-1,-1,-1,-1,-1,-1,-1,-1,-1,-1,-1,-1,-1,-1],"split_conditions":[2.318315E1,1.8748491E1,3.1E1,8.3333336E-2,6.9E1,6.1335323E1,4.913636E0,1.6063381E1,-1.5316558E-2,1.4E1,4.4347825E0,2E1,5.7E0,3.6103745E1,5.0493134E1,8.6214036E-2,6.677605E-2,-1.2042105E-2,6.1703797E-2,-8.0468535E-2,6.291808E-2,5.1061776E-2,7.046608E-3,-5.6327015E-2,6.271014E-2,9.410459E-3,-9.2311434E-2,6.804989E-2,-5.938896E-2],"split_indices":[1,1,16,9,16,1,7,1,0,16,7,16,7,2,1,0,0,0,0,0,0,0,0,0,0,0,0,0,0],"split_type":[0,0,0,0,0,0,0,0,0,0,0,0,0,0,0,0,0,0,0,0,0,0,0,0,0,0,0,0,0],"sum_hessian":[1.00305054E3,3.686932E2,6.3435736E2,2.9616986E2,7.252337E1,3.3456247E2,2.997949E2,2.9492953E2,1.2403122E0,5.493062E1,1.7592749E1,1.6720474E2,1.6735771E2,2.7314484E2,2.6650036E1,2.4055075E2,5.4378788E1,2.2393143E0,5.2691303E1,9.473685E0,8.119063E0,8.5814316E1,8.1390434E1,1.594752E2,7.8825035E0,6.1847777E0,2.6696008E2,1.9925613E1,6.7244225E0],"tree_param":{"num_deleted":"0","num_feature":"28","num_nodes":"29","size_leaf_vector":"1"}},{"base_weights":[-1.1403771E-2,-1.8913736E0,1.6639984E0,-1.9444332E0,-6.046165E-1,5.802706E-1,8.554418E-2,-9.887236E-2,-1.4636691E0,3.8337234E-2,-7.7481794E-1,1.098976E0,-2.0582569E-1,-8.947468E-3,-7.989546E-2,-4.8157018E-2,1.1530569E-2,6.1087017E-3,6.461258E-2,-2.4602268E-2,5.131057E-2],"categories":[],"categories_nodes":[],"categories_segments":[],"categories_sizes":[],"default_left":[0,0,0,0,0,0,0,0,0,0,0,0,0,0,0,0,0,0,0,0,0],"id":2,"left_children":[1,3,5,7,9,11,-1,-1,13,-1,15,17,19,-1,-1,-1,-1,-1,-1,-1,-1],"loss_changes":[3.1524026E3,3.1025024E1,2.5897583E1,4.287842E0,5.2923245E0,9.791889E0,0E0,0E0,5.392418E0,0E0,3.706791E0,2.5402012E0,4.0906134E0,0E0,0E0,0E0,0E0,0E0,0E0,0E0,0E0],"parents":[2147483647,0,0,1,1,2,2,3,3,4,4,5,5,8,8,10,10,11,11,12,12],"right_children":[2,4,6,8,10,12,-1,-1,14,-1,16,18,20,-1,-1,-1,-1,-1,-1,-1,-1],"split_conditions":[9.8087597E-1,5.9286547E-1,9.980732E-1,2.2802636E-2,3.25E0,4.0111113E0,8.554418E-2,-9.887236E-2,1.7021276E-2,3.8337234E-2,5.0277777E0,1.5E1,2.0763206E2,-8.947468E-3,-7.989546E-2,-4.8157018E-2,1.1530569E-2,6.1087017E-3,6.461258E-2,-2.4602268E-2,5.131057E-2],"split_indices":[0,0,0,0,7,7,0,0,8,0,7,16,3,0,0,0,0,0,0,0,0],"split_type":[0,0,0,0,0,0,0,0,0,0,0,0,0,0,0,0,0,0,0,0,0],"sum_hessian":[9.988571E2,4.706319E2,5.282253E2,4.51503E2,1.9128895E1,2.2459562E1,5.057657E2,4.1957745E2,3.1925524E1,1.7250167E0,1.7403877E1,1.329129E1,9.168271E0,3.2410157E0,2.868451E1,1.4693723E1,2.7101545E0,2.4650762E0,1.0826214E1,7.927277E0,1.2409942E0],"tree_param":{"num_deleted":"0","num_feature":"28","num_nodes":"21","size_leaf_vector":"1"}},{"base_weights":[9.149781E-3,-1.8281657E0,1.5792578E0,-9.425511E-2,-1.2713938E0,-8.520524E-3,1.6254302E0,-6.074828E-1,-1.5542667E0,6.864498E-1,-4.797252E-1,9.750797E-1,8.249851E-2,-4.4931497E-2,8.461456E-3,-8.015057E-2,-1.0709869E-2,6.251704E-2,4.8525752E-3,-5.078472E-2,3.0754924E-2,3.2968984E-3,6.1317742E-2],"categories":[],"categories_nodes":[],"categories_segments":[],"categories_sizes":[],"default_left":[0,0,0,0,0,0,0,0,0,0,0,0,0,0,0,0,0,0,0,0,0,0,0],"id":3,"left_children":[1,3,5,-1,7,9,11,13,15,17,19,21,-1,-1,-1,-1,-1,-1,-1,-1,-1,-1,-1],"loss_changes":[2.8575642E3,1.2072876E1,3.91709E1,0E0,7.585434E0,5.5976925E0,6.6746826E0,3.591918E0,1.6950989E0,2.1758585E0,6.5960083E0,4.788986E0,0E0,0E0,0E0,0E0,0E0,0E0,0E0,0E0,0E0,0E0,0E0],"parents":[2147483647,0,0,1,1,2,2,4,4,5,5,6,6,7,7,8,8,9,9,10,10,11,11],"right_children":[2,4,6,-1,8,10,12,14,16,18,20,22,-1,-1,-1,-1,-1,-1,-1,-1,-1,-1,-1],"split_conditions":[9.124362E-1,1.798621E-2,9.932025E-1,-9.425511E-2,8.291562E-1,3.8965516E0,9.984988E-1,1.2746356E2,6.382979E-2,4.1226776E1,4.7E0,1.4E1,8.249851E-2,-4.4931497E-2,8.461456E-3,-8.015057E-2,-1.0709869E-2,6.251704E-2,4.8525752E-3,-5.078472E-2,3.0754924E-2,3.2968984E-3,6.1317742E-2],"split_indices":[0,0,0,0,6,7,0,2,8,2,7,16,0,0,0,0,0,0,0,0,0,0,0],"split_type":[0,0,0,0,0,0,0,0,0,0,0,0,0,0,0,0,0,0,0,0,0,0,0],"sum_hessian":[9.885636E2,4.554449E2,5.331187E2,4.1102682E2,4.4418068E1,1.5087983E1,5.1803076E2,1.4211294E1,3.0206774E1,5.9118767E0,9.176106E0,2.0317423E1,4.9771332E2,1.0222476E1,3.988819E0,2.8957249E1,1.2495244E0,2.448222E0,3.4636548E0,6.2088494E0,2.9672568E0,4.672869E0,1.5644554E1],"tree_param":{"num_deleted":"0","num_feature":"28","num_nodes":"23","size_leaf_vector":"1"}},{"base_weights":[-1.0296567E-3,-1.73033E0,1.5481685E0,-1.7761576E0,-6.393221E-1,3.8762122E-1,7.9781555E-2,-9.044623E-2,-1.3613054E0,1.1864517E-1,-9.85419E-1,5.394901E-1,-5.7986435E-2,-4.3235622E-2,-8.117537E-2,-6.16084E-2,3.4376834E-2,-1.9188603E-2,-7.4595E-2,-1.1441661E-2,4.3416467E-2],"categories":[],"categories_nodes":[],"categories_segments":[],"categories_sizes":[],"default_left":[0,0,0,0,0,0,0,0,0,0,0,0,0,0,0,0,0,0,0,0,0],"id":4,"left_children":[1,3,5,7,9,11,-1,-1,13,15,17,19,-1,-1,-1,-1,-1,-1,-1,-1,-1],"loss_changes":[2.6151455E3,2.1926758E1,2.774292E1,3.5472412E0,5.4046106E0,5.6899667E0,0E0,0E0,3.3363113E0,6.3886843E0,3.67696E0,5.329403E0,0E0,0E0,0E0,0E0,0E0,0E0,0E0,0E0,0E0],"parents":[2147483647,0,0,1,1,2,2,3,3,4,4,5,5,8,8,9,9,10,10,11,11],"right_children":[2,4,6,8,10,12,-1,-1,14,16,18,20,-1,-1,-1,-1,-1,-1,-1,-1,-1],"split_conditions":[9.8087597E-1,5.9286547E-1,9.980732E-1,1.798621E-2,1.8697801E0,4.8E1,7.9781555E-2,-9.044623E-2,5.4644807E-3,1.2820513E-2,8.7776146E1,2.3584906E-2,-5.7986435E-2,-4.3235622E-2,-8.117537E-2,-6.16084E-2,3.4376834E-2,-1.9188603E-2,-7.4595E-2,-1.1441661E-2,4.3416467E-2],"split_indices":[0,0,0,0,3,16,0,0,14,8,2,8,0,0,0,0,0,0,0,0,0],"split_type":[0,0,0,0,0,0,0,0,0,0,0,0,0,0,0,0,0,0,0,0,0],"sum_hessian":[9.741542E2,4.602646E2,5.138896E2,4.4110794E2,1.9156645E1,2.0550756E1,4.9333884E2,4.0570322E2,3.540473E1,6.211149E0,1.2945496E1,1.930715E1,1.2436068E0,1.3719265E1,2.1685467E1,1.4951224E0,4.7160273E0,6.7202535E0,6.225242E0,5.877848E0,1.3429302E1],"tree_param":{"num_deleted":"0","num_feature":"28","num_nodes":"21","size_leaf_vector":"1"}},{"base_weights":[5.901503E-3,-1.6364676E0,1.5221184E0,-1.7068155E0,-5.119414E-1,8.138558E-1,7.7492245E-2,-8.6732626E-2,-1.3547271E0,1.9497998E-1,-8.901175E-1,-1.4273822E-1,1.0938089E0,-7.9832515E-3,-7.142247E-2,3.7425254E-2,-4.2098396E-2,-6.1715074E-2,2.5205258E-2,-4.7403987E-2,3.2596752E-2,6.0730148E-2,6.5564686E-3],"categories":[],"categories_nodes":[],"categories_segments":[],"categories_sizes":[],"default_left":[0,0,0,0,0,0,0,0,0,0,0,0,0,0,0,0,0,0,0,0,0,0,0],"id":5,"left_children":[1,3,5,7,9,11,-1,-1,13,15,17,19,21,-1,-1,-1,-1,-1,-1,-1,-1,-1,-1],"loss_changes":[2.4061907E3,3.5819702E1,8.605225E0,1.9243164E0,7.856102E0,5.7889013E0,0E0,0E0,2.9893417E0,6.849622E0,9.692347E0,4.2317567E0,1.7462959E0,0E0,0E0,0E0,0E0,0E0,0E0,0E0,0E0,0E0,0E0],"parents":[2147483647,0,0,1,1,2,2,3,3,4,4,5,5,8,8,9,9,10,10,11,11,12,12],"right_children":[2,4,6,8,10,12,-1,-1,14,16,18,20,22,-1,-1,-1,-1,-1,-1,-1,-1,-1,-1],"split_conditions":[9.932025E-1,5.9286547E-1,9.984988E-1,1.798621E-2,3.9166667E0,1.4E1,7.7492245E-2,-8.6732626E-2,2.8255695E1,4.68208E1,5.0277777E0,3.717472E-2,9.802446E1,-7.9832515E-3,-7.142247E-2,3.7425254E-2,-4.2098396E-2,-6.1715074E-2,2.5205258E-2,-4.7403987E-2,3.2596752E-2,6.0730148E-2,6.5564686E-3],"split_indices":[0,0,0,0,7,16,0,0,2,1,7,8,1,0,0,0,0,0,0,0,0,0,0],"split_type":[0,0,0,0,0,0,0,0,0,0,0,0,0,0,0,0,0,0,0,0,0,0,0],"sum_hessian":[9.6426843E2,4.6283997E2,5.0142844E2,4.3510306E2,2.7736902E1,2.0033396E1,4.8139505E2,3.995841E2,3.5518955E1,9.835642E0,1.790126E1,4.646507E0,1.53868885E1,2.2477617E0,3.3271194E1,6.593945E0,3.241697E0,1.4449016E1,3.4522445E0,2.2118847E0,2.434622E0,1.3438924E1,1.9479649E0],"tree_param":{"num_deleted":"0","num_feature":"28","num_nodes":"23","size_leaf_vector":"1"}},{"base_weights":[-2.338903E-2,-1.5934898E0,1.4587535E0,-1.6393788E0,-5.858E-1,6.029286E-1,7.535037E-2,-8.353313E-2,-1.2513913E0,3.28374E-2,-1.0240439E0,9.896199E-1,1.6185218E-1,-3.915166E-2,-7.5043194E-2,3.188565E-2,-1.9642726E-2,-1.8049264E-2,-8.026134E-2,-3.0520547E-4,5.612396E-2,-1.1122803E-2,6.1874058E-2],"categories":[],"categories_nodes":[],"categories_segments":[],"categories_sizes":[],"default_left":[0,0,0,0,0,0,0,0,0,0,0,0,0,0,0,0,0,0,0,0,0,0,0],"id":6,"left_children":[1,3,5,7,9,11,-1,-1,13,15,17,19,21,-1,-1,-1,-1,-1,-1,-1,-1,-1,-1],"loss_changes":[2.2061885E3,2.0327148E1,1.9231323E1,3.2468262E0,5.8915205E0,4.5637493E0,0E0,0E0,3.124134E0,2.8069808E0,4.3062677E0,1.9333477E0,6.117867E0,0E0,0E0,0E0,0E0,0E0,0E0,0E0,0E0,0E0,0E0],"parents":[2147483647,0,0,1,1,2,2,3,3,4,4,5,5,8,8,9,9,10,10,11,11,12,12],"right_children":[2,4,6,8,10,12,-1,-1,14,16,18,20,22,-1,-1,-1,-1,-1,-1,-1,-1,-1,-1],"split_conditions":[9.8087597E-1,5.9286547E-1,9.984988E-1,1.798621E-2,5.345225E-1,3.9130435E0,7.535037E-2,-8.353313E-2,5.4644807E-3,1.2055555E1,8.6114845E1,1.3E1,2.0763206E2,-3.915166E-2,-7.5043194E-2,3.188565E-2,-1.9642726E-2,-1.8049264E-2,-8.026134E-2,-3.0520547E-4,5.612396E-2,-1.1122803E-2,6.1874058E-2],"split_indices":[0,0,0,0,6,7,0,0,14,5,2,16,3,0,0,0,0,0,0,0,0,0,0],"split_type":[0,0,0,0,0,0,0,0,0,0,0,0,0,0,0,0,0,0,0,0,0,0,0],"sum_hessian":[9.460378E2,4.5935117E2,4.8668665E2,4.3874442E2,2.060674E1,2.6696466E1,4.5999017E2,4.029482E2,3.579619E1,8.92833E0,1.167841E1,1.3562546E1,1.3133921E1,1.3878859E1,2.1917328E1,3.482253E0,5.4460773E0,6.212187E0,5.4662232E0,1.708926E0,1.1853621E1,1.0260988E1,2.8729327E0],"tree_param":{"num_deleted":"0","num_feature":"28","num_nodes":"23","size_leaf_vector":"1"}},{"base_weights":[4.5654546E-3,-1.512468E0,1.4390196E0,-1.583083E0,-4.301024E-1,6.641405E-1,7.3440686E-2,-8.087298E-2,-1.1671963E0,7.684491E-1,-5.9158856E-1,-6.439481E-2,9.106269E-1,-3.4222476E-2,-7.184639E-2,5.307995E-2,3.3493675E-3,-3.8323514E-2,2.9403156E-2,-3.6128756E-2,3.1154057E-2,2.4497187E-2,6.875148E-2],"categories":[],"categories_nodes":[],"categories_segments":[],"categories_sizes":[],"default_left":[0,0,0,0,0,0,0,0,0,0,0,0,0,0,0,0,0,0,0,0,0,0,0],"id":7,"left_children":[1,3,5,7,9,11,-1,-1,13,15,17,19,21,-1,-1,-1,-1,-1,-1,-1,-1,-1,-1],"loss_changes":[2.0291691E3,3.3957153E1,1.00894165E1,4.189331E0,6.09254E0,3.573144E0,0E0,0E0,3.7099876E0,7.295563E-1,5.863101E0,3.1115513E0,2.1961918E0,0E0,0E0,0E0,0E0,0E0,0E0,0E0,0E0,0E0,0E0],"parents":[2147483647,0,0,1,1,2,2,3,3,4,4,5,5,8,8,9,9,10,10,11,11,12,12],"right_children":[2,4,6,8,10,12,-1,-1,14,16,18,20,22,-1,-1,-1,-1,-1,-1,-1,-1,-1,-1],"split_conditions":[9.932025E-1,5.9286547E-1,9.984988E-1,1.798621E-2,3.4736843E0,1.4E1,7.3440686E-2,-8.087298E-2,5.4644807E-3,1.1166667E1,5.0277777E0,3.717472E-2,4.9162853E1,-3.4222476E-2,-7.184639E-2,5.307995E-2,3.3493675E-3,-3.8323514E-2,2.9403156E-2,-3.6128756E-2,3.1154057E-2,2.4497187E-2,6.875148E-2],"split_indices":[0,0,0,0,7,16,0,0,14,5,7,8,3,0,0,0,0,0,0,0,0,0,0],"split_type":[0,0,0,0,0,0,0,0,0,0,0,0,0,0,0,0,0,0,0,0,0,0,0],"sum_hessian":[9.304731E2,4.521933E2,4.7827975E2,4.2406415E2,2.8129164E1,1.857134E1,4.5970844E2,3.8901917E2,3.5044983E1,2.8936756E0,2.5235489E1,4.881608E0,1.3689733E1,1.3830186E1,2.1214798E1,1.6787108E0,1.2149647E0,2.228241E1,2.953078E0,2.4678583E0,2.41375E0,8.261228E0,5.428505E0],"tree_param":{"num_deleted":"0","num_feature":"28","num_nodes":"23","size_leaf_vector":"1"}},{"base_weights":[-3.2604944E-3,1.1846167E0,-6.461727E-1,1.3921779E0,7.912738E-1,-1.6900936E-1,-1.1744927E0,6.976502E-2,2.098781E-2,1.006558E0,2.3080318E-1,5.167814E-1,-7.111868E-1,-1.3304578E0,4.9115518E-1,-3.21166E-2,5.2229222E-2,-9.937731E-3,5.547009E-2,3.8394872E-2,6.8882382E-3,-3.9899155E-2,5.7333022E-2,-4.636808E-2,-7.646196E-2,5.309344E-2,-3.999603E-2],"categories":[],"categories_nodes":[],"categories_segments":[],"categories_sizes":[],"default_left":[0,0,0,0,0,0,0,0,0,0,0,0,0,0,0,0,0,0,0,0,0,0,0,0,0,0,0],"id":8,"left_children":[1,3,5,7,9,11,13,-1,-1,15,17,19,21,23,25,-1,-1,-1,-1,-1,-1,-1,-1,-1,-1,-1,-1],"loss_changes":[6.989277E2,2.5137054E1,1.4949533E2,4.9041748E-2,1.3441826E1,1.16811775E2,7.3815125E1,0E0,0E0,5.7861404E0,1.25797615E1,1.3109821E1,2.9186203E1,1.9237457E1,1.9154577E1,0E0,0E0,0E0,0E0,0E0,0E0,0E0,0E0,0E0,0E0,0E0,0E0],"parents":[2147483647,0,0,1,1,2,2,3,3,4,4,5,5,6,6,9,9,10,10,11,11,12,12,13,13,14,14],"right_children":[2,4,6,8,10,12,14,-1,-1,16,18,20,22,24,26,-1,-1,-1,-1,-1,-1,-1,-1,-1,-1,-1,-1],"split_conditions":[2.298742E1,1.6063381E1,3.1E1,7.4074075E-2,5.914355E0,5.4545715E1,4.9333334E0,6.976502E-2,2.098781E-2,1.3E1,4.4347825E0,9.6E0,5.7E0,5.1E1,5.0493134E1,-3.21166E-2,5.2229222E-2,-9.937731E-3,5.547009E-2,3.8394872E-2,6.8882382E-3,-3.9899155E-2,5.7333022E-2,-4.636808E-2,-7.646196E-2,5.309344E-2,-3.999603E-2],"split_indices":[1,1,16,9,6,1,7,0,0,16,7,5,7,16,1,0,0,0,0,0,0,0,0,0,0,0,0],"split_type":[0,0,0,0,0,0,0,0,0,0,0,0,0,0,0,0,0,0,0,0,0,0,0,0,0,0,0],"sum_hessian":[9.1318304E2,3.2038354E2,5.927995E2,2.0805609E2,1.1232746E2,3.1217343E2,2.8062607E2,2.069567E2,1.0993847E0,8.057978E1,3.1747677E1,1.3785275E2,1.7432066E2,2.5678308E2,2.384298E1,1.4582009E0,7.912158E1,2.1842426E1,9.9052515E0,8.229949E1,5.555326E1,1.6708514E2,7.235526E0,8.667849E1,1.701046E2,1.6657255E1,7.1857247E0],"tree_param":{"num_deleted":"0","num_feature":"28","num_nodes":"27","size_leaf_vector":"1"}},{"base_weights":[-7.845957E-3,-1.446608E0,1.3897009E0,-1.5081344E0,-5.045255E-1,6.140917E-1,7.102152E-2,-7.693388E-2,-1.1407655E0,1.6451308E-1,-8.472884E-1,-3.7602734E-2,8.602757E-1,-3.543758E-2,-6.897792E-2,3.3753376E-2,-3.767734E-2,-1.3460681E-2,-6.935414E-2,4.8173472E-2,-1.6812886E-3],"categories":[],"categories_nodes":[],"categories_segments":[],"categories_sizes":[],"default_left":[0,0,0,0,0,0,0,0,0,0,0,0,0,0,0,0,0,0,0,0,0],"id":9,"left_children":[1,3,5,7,9,11,-1,-1,13,15,17,-1,19,-1,-1,-1,-1,-1,-1,-1,-1],"loss_changes":[1.8001427E3,2.4808105E1,9.95166E0,2.885315E0,6.6856055E0,7.060244E0,0E0,0E0,2.6961212E0,5.4339037E0,5.5672913E0,0E0,1.5658445E0,0E0,0E0,0E0,0E0,0E0,0E0,0E0,0E0],"parents":[2147483647,0,0,1,1,2,2,3,3,4,4,5,5,8,8,9,9,10,10,12,12],"right_children":[2,4,6,8,10,12,-1,-1,14,16,18,-1,20,-1,-1,-1,-1,-1,-1,-1,-1],"split_conditions":[9.932025E-1,5.9286547E-1,9.984988E-1,1.798621E-2,3.9166667E0,1.3E1,7.102152E-2,-7.693388E-2,5.4644807E-3,4.68208E1,3.0959335E1,-3.7602734E-2,4.8E0,-3.543758E-2,-6.897792E-2,3.3753376E-2,-3.767734E-2,-1.3460681E-2,-6.935414E-2,4.8173472E-2,-1.6812886E-3],"split_indices":[0,0,0,0,7,16,0,0,14,1,3,0,7,0,0,0,0,0,0,0,0],"split_type":[0,0,0,0,0,0,0,0,0,0,0,0,0,0,0,0,0,0,0,0,0],"sum_hessian":[8.9326526E2,4.401252E2,4.5314005E2,4.125792E2,2.7546003E1,1.8068762E1,4.350713E2,3.779664E2,3.4612812E1,9.507793E0,1.803821E1,2.4451368E0,1.5623624E1,1.3733964E1,2.0878847E1,6.280012E0,3.227781E0,9.433959E0,8.604251E0,1.3936896E1,1.686728E0],"tree_param":{"num_deleted":"0","num_feature":"28","num_nodes":"21","size_leaf_vector":"1"}},{"base_weights":[8.669111E-3,-1.448045E0,1.3142262E0,-7.4969046E-2,-1.0064948E0,3.6221182E-1,1.3824517E0,-4.566876E-1,-1.2564415E0,4.6694946E-1,-6.4485276E-1,6.8663335E-1,6.9299735E-2,9.464949E-4,-4.1199382E-2,-6.7641504E-2,-8.276286E-3,5.2226223E-2,6.874708E-3,-3.97153E-2,-1.015428E-2,-3.8161853E-3,5.0298132E-2],"categories":[],"categories_nodes":[],"categories_segments":[],"categories_sizes":[],"default_left":[0,0,0,0,0,0,0,0,0,0,0,0,0,0,0,0,0,0,0,0,0,0,0],"id":10,"left_children":[1,3,5,-1,7,9,11,13,15,17,19,21,-1,-1,-1,-1,-1,-1,-1,-1,-1,-1,-1],"loss_changes":[1.6551215E3,7.814636E0,2.9308716E1,0E0,5.7316513E0,3.681233E0,1.0321045E-1,2.7951674E0,3.0329056E0,5.490151E0,6.57351E-2,1.0877528E0,0E0,0E0,0E0,0E0,0E0,0E0,0E0,0E0,0E0,0E0,0E0],"parents":[2147483647,0,0,1,1,2,2,4,4,5,5,6,6,7,7,8,8,9,9,10,10,11,11],"right_children":[2,4,6,-1,8,10,12,14,16,18,20,22,-1,-1,-1,-1,-1,-1,-1,-1,-1,-1,-1],"split_conditions":[9.124362E-1,1.798621E-2,9.980732E-1,-7.4969046E-2,8.291562E-1,4.2E1,9.984988E-1,4.597701E-2,6.896552E-2,8.717949E-1,4.609772E0,8.117647E0,6.9299735E-2,9.464949E-4,-4.1199382E-2,-6.7641504E-2,-8.276286E-3,5.2226223E-2,6.874708E-3,-3.97153E-2,-1.015428E-2,-3.8161853E-3,5.0298132E-2],"split_indices":[0,0,0,0,6,16,0,14,12,4,6,5,0,0,0,0,0,0,0,0,0,0,0],"split_type":[0,0,0,0,0,0,0,0,0,0,0,0,0,0,0,0,0,0,0,0,0,0,0],"sum_hessian":[8.682807E2,4.1033173E2,4.5794894E2,3.6544803E2,4.4883698E1,3.1045864E1,4.269031E2,1.4911046E1,2.9972652E1,2.8606981E1,2.4388828E0,3.1495535E0,4.2375354E2,6.9107566E0,8.00029E0,2.7318794E1,2.6538587E0,9.602384E0,1.9004599E1,1.2260729E0,1.2128098E0,1.1538076E0,1.9957459E0],"tree_param":{"num_deleted":"0","num_feature":"28","num_nodes":"23","size_leaf_vector":"1"}},{"base_weights":[-5.8859074E-3,-1.3642718E0,1.334157E0,-1.4322236E0,-3.4890237E-1,6.2785345E-1,6.786158E-2,-7.3087685E-2,-1.075675E0,2.765404E-1,-6.5970665E-1,8.8772225E-1,-2.809845E-1,-5.7489015E-2,-7.065519E-3,-2.2863312E-2,3.2705516E-2,-4.5414265E-2,2.154086E-2,-1.7764559E-2,5.292331E-2,-3.972552E-2,2.6685247E-2],"categories":[],"categories_nodes":[],"categories_segments":[],"categories_sizes":[],"default_left":[0,0,0,0,0,0,0,0,0,0,0,0,0,0,0,0,0,0,0,0,0,0,0],"id":11,"left_children":[1,3,5,7,9,11,-1,-1,13,15,17,19,21,-1,-1,-1,-1,-1,-1,-1,-1,-1,-1],"loss_changes":[1.55296E3,2.8731628E1,6.147278E0,2.6052246E0,5.6052847E0,3.8978167E0,0E0,0E0,2.2010155E0,3.0601628E0,5.5232086E0,2.9766312E0,2.178833E0,0E0,0E0,0E0,0E0,0E0,0E0,0E0,0E0,0E0,0E0],"parents":[2147483647,0,0,1,1,2,2,3,3,4,4,5,5,8,8,9,9,10,10,11,11,12,12],"right_children":[2,4,6,8,10,12,-1,-1,14,16,18,20,22,-1,-1,-1,-1,-1,-1,-1,-1,-1,-1],"split_conditions":[9.932025E-1,5.9286547E-1,9.980732E-1,1.798621E-2,3.9166667E0,6.208804E1,6.786158E-2,-7.3087685E-2,6.896552E-2,9.124362E-1,5.0277777E0,1.3E1,1.0540863E2,-5.7489015E-2,-7.065519E-3,-2.2863312E-2,3.2705516E-2,-4.5414265E-2,2.154086E-2,-1.7764559E-2,5.292331E-2,-3.972552E-2,2.6685247E-2],"split_indices":[0,0,0,0,7,1,0,0,12,0,7,16,1,0,0,0,0,0,0,0,0,0,0],"split_type":[0,0,0,0,0,0,0,0,0,0,0,0,0,0,0,0,0,0,0,0,0,0,0],"sum_hessian":[8.511363E2,4.2266632E2,4.2847E2,3.957696E2,2.6896708E1,1.4447553E1,4.1402243E2,3.626355E2,3.3134106E1,8.965449E0,1.793126E1,1.1253122E1,3.1944304E0,3.0485712E1,2.648395E0,2.9741383E0,5.991311E0,1.4738754E1,3.1925037E0,1.2285391E0,1.0024584E1,1.9745651E0,1.2198652E0],"tree_param":{"num_deleted":"0","num_feature":"28","num_nodes":"23","size_leaf_vector":"1"}},{"base_weights":[-6.692116E-3,-1.3267318E0,1.3058455E0,-7.1538314E-2,-7.0959705E-1,5.774769E-1,6.689288E-2,-9.142868E-1,-7.0646234E-2,-2.0622233E-1,8.230512E-1,-2.0447511E-2,-5.774541E-2,2.8692668E-2,-2.942266E-2,-4.1599166E-2,1.9754702E-2,4.7647297E-2,-1.1485507E-2],"categories":[],"categories_nodes":[],"categories_segments":[],"categories_sizes":[],"default_left":[0,0,0,0,0,0,0,0,0,0,0,0,0,0,0,0,0,0,0],"id":12,"left_children":[1,3,5,-1,7,9,-1,11,13,15,17,-1,-1,-1,-1,-1,-1,-1,-1],"loss_changes":[1.4334098E3,2.5467102E1,8.900024E0,0E0,7.9770927E0,3.8695455E0,0E0,5.180023E0,5.678021E0,2.355484E0,2.2479458E0,0E0,0E0,0E0,0E0,0E0,0E0,0E0,0E0],"parents":[2147483647,0,0,1,1,2,2,4,4,5,5,7,7,8,8,9,9,10,10],"right_children":[2,4,6,-1,8,10,-1,12,14,16,18,-1,-1,-1,-1,-1,-1,-1,-1],"split_conditions":[9.932025E-1,1.798621E-2,9.984988E-1,-7.1538314E-2,9.124362E-1,1.4E1,6.689288E-2,8.291562E-1,3.9166667E0,4.256098E0,9.802446E1,-2.0447511E-2,-5.774541E-2,2.8692668E-2,-2.942266E-2,-4.1599166E-2,1.9754702E-2,4.7647297E-2,-1.1485507E-2],"split_indices":[0,0,0,0,0,16,0,6,7,7,1,0,0,0,0,0,0,0,0],"split_type":[0,0,0,0,0,0,0,0,0,0,0,0,0,0,0,0,0,0,0],"sum_hessian":[8.253164E2,4.1147684E2,4.1383954E2,3.509898E2,6.048703E1,1.8224165E1,3.956154E2,4.5484894E1,1.5002137E1,4.386336E0,1.383783E1,1.5542711E1,2.994218E1,6.635224E0,8.366913E0,1.9614968E0,2.4248388E0,1.2402378E1,1.4354515E0],"tree_param":{"num_deleted":"0","num_feature":"28","num_nodes":"19","size_leaf_vector":"1"}},{"base_weights":[-3.922269E-3,-1.3305063E0,1.2613477E0,-6.9976464E-2,-8.5259795E-1,4.4259223E-1,1.3058424E0,-9.456381E-1,9.1466606E-2,5.4919213E-1,-2.799101E-2,9.861381E-1,6.59343E-2,-2.159219E-2,-5.730312E-2,4.814675E-2,-2.2141373E-2,-1.3683081E-2,3.5549767E-2,1.60162E-2,5.457279E-2],"categories":[],"categories_nodes":[],"categories_segments":[],"categories_sizes":[],"default_left":[0,0,0,0,0,0,0,0,0,0,0,0,0,0,0,0,0,0,0,0,0],"id":13,"left_children":[1,3,5,-1,7,9,11,13,15,17,-1,19,-1,-1,-1,-1,-1,-1,-1,-1,-1],"loss_changes":[1.3546105E3,1.1802612E1,1.4470276E1,0E0,4.678425E0,2.7441788E0,3.0621338E-1,4.414669E0,3.0347188E0,3.0060325E0,0E0,9.880829E-1,0E0,0E0,0E0,0E0,0E0,0E0,0E0,0E0,0E0],"parents":[2147483647,0,0,1,1,2,2,4,4,5,5,6,6,7,7,8,8,9,9,11,11],"right_children":[2,4,6,-1,8,10,12,14,16,18,-1,20,-1,-1,-1,-1,-1,-1,-1,-1,-1],"split_conditions":[9.8087597E-1,1.798621E-2,9.980732E-1,-6.9976464E-2,6.896552E-2,4.2E1,9.9911696E-1,1.8697801E0,8.888889E-2,1.3E1,-2.799101E-2,6.8E0,6.59343E-2,-2.159219E-2,-5.730312E-2,4.814675E-2,-2.2141373E-2,-1.3683081E-2,3.5549767E-2,1.60162E-2,5.457279E-2],"split_indices":[0,0,0,0,12,16,0,3,12,16,0,5,0,0,0,0,0,0,0,0,0],"split_type":[0,0,0,0,0,0,0,0,0,0,0,0,0,0,0,0,0,0,0,0,0],"sum_hessian":[8.050428E2,3.9297397E2,4.1206882E2,3.416955E2,5.1278477E1,2.180364E1,3.9026517E2,4.6676693E1,4.6017833E0,2.0116512E1,1.6871278E0,1.8076773E1,3.7218842E2,1.3983686E1,3.269301E1,1.4441023E0,3.1576812E0,3.1920328E0,1.6924479E1,3.0208154E0,1.5055957E1],"tree_param":{"num_deleted":"0","num_feature":"28","num_nodes":"21","size_leaf_vector":"1"}},{"base_weights":[8.998767E-4,-1.2658613E0,1.2618793E0,-1.3298914E0,-3.9493522E-1,5.868587E-1,6.431519E-2,-6.823298E-2,-9.3822324E-1,-2.0383331E-1,-1.1346502E0,2.8581044E-1,1.0643361E0,-1.852188E-2,-5.658212E-2,-3.155325E-2,1.2311301E-2,-6.547253E-2,-1.8698214E-2,3.049144E-2,-3.1481143E-2,5.861331E-2,1.610821E-2],"categories":[],"categories_nodes":[],"categories_segments":[],"categories_sizes":[],"default_left":[0,0,0,0,0,0,0,0,0,0,0,0,0,0,0,0,0,0,0,0,0,0,0],"id":14,"left_children":[1,3,5,7,9,11,-1,-1,13,15,17,19,21,-1,-1,-1,-1,-1,-1,-1,-1,-1,-1],"loss_changes":[1.2444183E3,2.1147095E1,5.681946E0,3.6436768E0,3.7321696E0,1.9198313E0,0E0,0E0,3.1699257E0,4.6740427E0,2.4660015E-1,3.6041436E0,7.218075E-2,0E0,0E0,0E0,0E0,0E0,0E0,0E0,0E0,0E0,0E0],"parents":[2147483647,0,0,1,1,2,2,3,3,4,4,5,5,8,8,9,9,10,10,11,11,12,12],"right_children":[2,4,6,8,10,12,-1,-1,14,16,18,20,22,-1,-1,-1,-1,-1,-1,-1,-1,-1,-1],"split_conditions":[9.932025E-1,5.9286547E-1,9.980732E-1,1.798621E-2,1.201887E2,2.6614532E0,6.431519E-2,-6.823298E-2,4.1777393E-1,5.9572227E1,5.4421768E-2,1.47902E0,1.12676054E-1,-1.852188E-2,-5.658212E-2,-3.155325E-2,1.2311301E-2,-6.547253E-2,-1.8698214E-2,3.049144E-2,-3.1481143E-2,5.861331E-2,1.610821E-2],"split_indices":[0,0,0,0,3,6,0,0,3,2,8,6,14,0,0,0,0,0,0,0,0,0,0],"split_type":[0,0,0,0,0,0,0,0,0,0,0,0,0,0,0,0,0,0,0,0,0,0,0],"sum_hessian":[7.7704694E2,3.8763284E2,3.8941406E2,3.6059506E2,2.7037788E1,1.4472181E1,3.7494186E2,3.289133E2,3.1681768E1,2.2500458E1,4.5373306E0,9.856358E0,4.615824E0,8.790956E0,2.2890814E1,1.1336643E1,1.1163814E1,3.1028993E0,1.4344313E0,7.5262656E0,2.330092E0,3.52386E0,1.0919641E0],"tree_param":{"num_deleted":"0","num_feature":"28","num_nodes":"23","size_leaf_vector":"1"}},{"base_weights":[8.981082E-3,-1.2346994E0,1.2394762E0,-1.306314E0,-3.0772468E-1,5.7247066E-1,6.3428946E-2,-1.3392658E0,-9.392918E-1,5.023512E-1,-6.4386374E-1,2.1393088E-1,1.1375536E0,-6.7106105E-2,-2.7000908E-2,-5.2499484E-2,-1.1138049E-2,4.1339133E-4,6.1707865E-2,-4.5533728E-2,2.6460648E-2,2.7388895E-2,-4.0070135E-2,6.2031914E-2,1.5824154E-2],"categories":[],"categories_nodes":[],"categories_segments":[],"categories_sizes":[],"default_left":[0,0,0,0,0,0,0,0,0,0,0,0,0,0,0,0,0,0,0,0,0,0,0,0,0],"id":15,"left_children":[1,3,5,7,9,11,-1,13,15,17,19,21,23,-1,-1,-1,-1,-1,-1,-1,-1,-1,-1,-1,-1],"loss_changes":[1.165059E3,2.4733215E1,6.7022095E0,2.9890747E0,8.073532E0,3.3673124E0,0E0,5.432129E-3,2.3264408E0,3.2108462E0,6.914918E0,4.5523005E0,1.7329502E-1,0E0,0E0,0E0,0E0,0E0,0E0,0E0,0E0,0E0,0E0,0E0,0E0],"parents":[2147483647,0,0,1,1,2,2,3,3,4,4,5,5,7,7,8,8,9,9,10,10,11,11,12,12],"right_children":[2,4,6,8,10,12,-1,14,16,18,20,22,24,-1,-1,-1,-1,-1,-1,-1,-1,-1,-1,-1,-1],"split_conditions":[9.932025E-1,5.9286547E-1,9.984988E-1,1.798621E-2,3.837838E0,4.9162853E1,6.3428946E-2,7.647059E-1,4.4444446E-2,3.5778176E-2,5.0277777E0,5.8024586E1,8.411215E-2,-6.7106105E-2,-2.7000908E-2,-5.2499484E-2,-1.1138049E-2,4.1339133E-4,6.1707865E-2,-4.5533728E-2,2.6460648E-2,2.7388895E-2,-4.0070135E-2,6.2031914E-2,1.5824154E-2],"split_indices":[0,0,0,0,7,3,0,11,12,8,7,1,14,0,0,0,0,0,0,0,0,0,0,0,0],"split_type":[0,0,0,0,0,0,0,0,0,0,0,0,0,0,0,0,0,0,0,0,0,0,0,0,0],"sum_hessian":[7.5930585E2,3.77628E2,3.8167786E2,3.5016623E2,2.7461763E1,1.682126E1,3.648566E2,3.18887E2,3.1279224E1,7.908428E0,1.9553333E1,1.1134872E1,5.6863885E0,3.1707468E2,1.8123378E0,2.6690407E1,4.588819E0,5.324713E0,2.583715E0,1.6112345E1,3.44099E0,8.72616E0,2.4087124E0,4.5980997E0,1.0882883E0],"tree_param":{"num_deleted":"0","num_feature":"28","num_nodes":"25","size_leaf_vector":"1"}},{"base_weights":[9.5837755E-4,-1.2114619E0,1.2236223E0,-1.2776909E0,-3.1054318E-1,5.87935E-1,6.25998E-2,-6.5727204E-2,-8.874973E-1,5.289397E-1,-6.212216E-1,-2.0751086E-1,7.9556525E-1,-5.0845146E-2,-6.20207E-3,-1.150527E-3,5.172223E-2,-4.0144965E-2,2.3149494E-2,-3.2657977E-2,2.6183546E-2,1.841215E-2,6.1529446E-2],"categories":[],"categories_nodes":[],"categories_segments":[],"categories_sizes":[],"default_left":[0,0,0,0,0,0,0,0,0,0,0,0,0,0,0,0,0,0,0,0,0,0,0],"id":16,"left_children":[1,3,5,7,9,11,-1,-1,13,15,17,19,21,-1,-1,-1,-1,-1,-1,-1,-1,-1,-1],"loss_changes":[1.0799591E3,2.142926E1,5.8063965E0,3.7286377E0,7.206236E0,3.0362067E0,0E0,0E0,3.0804062E0,2.161945E0,4.2536006E0,1.7730126E0,2.1479855E0,0E0,0E0,0E0,0E0,0E0,0E0,0E0,0E0,0E0,0E0],"parents":[2147483647,0,0,1,1,2,2,3,3,4,4,5,5,8,8,9,9,10,10,11,11,12,12],"right_children":[2,4,6,8,10,12,-1,-1,14,16,18,20,22,-1,-1,-1,-1,-1,-1,-1,-1,-1,-1],"split_conditions":[9.932025E-1,5.9286547E-1,9.984988E-1,1.798621E-2,3.8055556E0,1.4E1,6.25998E-2,-6.5727204E-2,4.4444446E-2,3.0837005E-2,5.0277777E0,1.00625E1,4.3489586E1,-5.0845146E-2,-6.20207E-3,-1.150527E-3,5.172223E-2,-4.0144965E-2,2.3149494E-2,-3.2657977E-2,2.6183546E-2,1.841215E-2,6.1529446E-2],"split_indices":[0,0,0,0,7,16,0,0,12,8,7,5,3,0,0,0,0,0,0,0,0,0,0],"split_type":[0,0,0,0,0,0,0,0,0,0,0,0,0,0,0,0,0,0,0,0,0,0,0],"sum_hessian":[7.265293E2,3.647974E2,3.6173187E2,3.3942697E2,2.5370419E1,1.6384007E1,3.4534787E2,3.079706E2,3.1456362E1,6.663222E0,1.8707197E1,3.3915024E0,1.2992504E1,2.661342E1,4.842942E0,3.6415591E0,3.0216627E0,1.6244604E1,2.4625921E0,2.173488E0,1.2180144E0,7.4857593E0,5.506745E0],"tree_param":{"num_deleted":"0","num_feature":"28","num_nodes":"23","size_leaf_vector":"1"}},{"base_weights":[1.8475903E-2,-1.2336249E0,1.1590677E0,-6.4613834E-2,-7.985495E-1,3.255647E-1,1.2307487E0,-2.4104671E-1,-1.0603497E0,6.5326905E-1,-8.027607E-2,8.6769646E-1,6.228685E-2,-4.4173047E-2,5.2304184E-3,-6.2118948E-2,-1.4548771E-2,4.5620404E-2,-5.6048355E-4,-5.6296308E-2,5.9706657E-3,4.8990726E-2,1.8715069E-2],"categories":[],"categories_nodes":[],"categories_segments":[],"categories_sizes":[],"default_left":[0,0,0,0,0,0,0,0,0,0,0,0,0,0,0,0,0,0,0,0,0,0,0],"id":17,"left_children":[1,3,5,-1,7,9,11,13,15,17,19,21,-1,-1,-1,-1,-1,-1,-1,-1,-1,-1,-1],"loss_changes":[1.00896216E3,7.562256E0,2.1687439E1,0E0,5.965828E0,4.126883E0,7.6953125E-1,3.4043186E0,3.65942E0,2.947661E0,3.178172E0,5.6137943E-1,0E0,0E0,0E0,0E0,0E0,0E0,0E0,0E0,0E0,0E0,0E0],"parents":[2147483647,0,0,1,1,2,2,4,4,5,5,6,6,7,7,8,8,9,9,10,10,11,11],"right_children":[2,4,6,-1,8,10,12,14,16,18,20,22,-1,-1,-1,-1,-1,-1,-1,-1,-1,-1,-1],"split_conditions":[9.124362E-1,1.798621E-2,9.980732E-1,-6.4613834E-2,8.291562E-1,4.0111113E0,9.9911696E-1,6.656919E-2,4.477612E-2,4.68208E1,7.641509E-1,2.3E1,6.228685E-2,-4.4173047E-2,5.2304184E-3,-6.2118948E-2,-1.4548771E-2,4.5620404E-2,-5.6048355E-4,-5.6296308E-2,5.9706657E-3,4.8990726E-2,1.8715069E-2],"split_indices":[0,0,0,0,6,7,0,0,8,1,4,16,0,0,0,0,0,0,0,0,0,0,0],"split_type":[0,0,0,0,0,0,0,0,0,0,0,0,0,0,0,0,0,0,0,0,0,0,0],"sum_hessian":[7.044877E2,3.35789E2,3.6869867E2,2.941632E2,4.1625786E1,2.9635866E1,3.390628E2,1.3914863E1,2.7710924E1,1.605902E1,1.3576848E1,1.5777845E1,3.2328497E2,4.3235197E0,9.591344E0,2.1911911E1,5.799013E0,1.1284914E1,4.774105E0,1.4332764E0,1.2143571E1,1.2053069E1,3.7247763E0],"tree_param":{"num_deleted":"0","num_feature":"28","num_nodes":"23","size_leaf_vector":"1"}},{"base_weights":[7.5345924E-3,-1.1679492E0,1.1854799E0,-1.2359209E0,-3.0897403E-1,5.125001E-1,6.096329E-2,-1.2719358E0,-8.684836E-1,7.049261E-1,-4.5657882E-1,1.752669E-1,9.9599195E-1,-6.37512E-2,-2.5920955E-2,-4.8124243E-2,6.700326E-4,5.0192356E-2,1.0911349E-3,-7.0714257E-3,-4.2711023E-2,-3.924514E-2,3.528393E-2,7.1848193E-3,5.867027E-2],"categories":[],"categories_nodes":[],"categories_segments":[],"categories_sizes":[],"default_left":[0,0,0,0,0,0,0,0,0,0,0,0,0,0,0,0,0,0,0,0,0,0,0,0,0],"id":18,"left_children":[1,3,5,7,9,11,-1,13,15,17,19,21,23,-1,-1,-1,-1,-1,-1,-1,-1,-1,-1,-1,-1],"loss_changes":[9.5676587E2,1.9811157E1,7.2223206E0,3.1321106E0,4.3168216E0,2.7967296E0,0E0,1.2420654E-2,2.6434479E0,7.51052E-1,2.8753686E0,6.639307E0,9.3132687E-1,0E0,0E0,0E0,0E0,0E0,0E0,0E0,0E0,0E0,0E0,0E0,0E0],"parents":[2147483647,0,0,1,1,2,2,3,3,4,4,5,5,7,7,8,8,9,9,10,10,11,11,12,12],"right_children":[2,4,6,8,10,12,-1,14,16,18,20,22,24,-1,-1,-1,-1,-1,-1,-1,-1,-1,-1,-1,-1],"split_conditions":[9.932025E-1,5.9286547E-1,9.984988E-1,1.798621E-2,3.4736843E0,4.9162853E1,6.096329E-2,7.647059E-1,6.896552E-2,1.3083333E1,3.0959335E1,1.00625E1,1.4E1,-6.37512E-2,-2.5920955E-2,-4.8124243E-2,6.700326E-4,5.0192356E-2,1.0911349E-3,-7.0714257E-3,-4.2711023E-2,-3.924514E-2,3.528393E-2,7.1848193E-3,5.867027E-2],"split_indices":[0,0,0,0,7,3,0,11,12,5,3,5,16,0,0,0,0,0,0,0,0,0,0,0,0],"split_type":[0,0,0,0,0,0,0,0,0,0,0,0,0,0,0,0,0,0,0,0,0,0,0,0,0],"sum_hessian":[6.8897754E2,3.4485333E2,3.441242E2,3.191591E2,2.569424E1,1.7223265E1,3.2690094E2,2.8842682E2,3.0732256E1,2.785414E0,2.2908827E1,1.0948937E1,6.274328E0,2.8656033E2,1.8665102E0,2.7689407E1,3.0428488E0,1.6109396E0,1.1744745E0,1.3536311E1,9.372517E0,3.7253606E0,7.2235765E0,1.392879E0,4.881449E0],"tree_param":{"num_deleted":"0","num_feature":"28","num_nodes":"25","size_leaf_vector":"1"}},{"base_weights":[-1.2821893E-2,-1.203079E0,1.1218349E0,-6.282619E-2,-8.005846E-1,2.6304087E-1,1.1984481E0,-2.6102215E-1,-1.0874261E0,7.6122457E-1,-3.8030248E-2,9.4049555E-1,6.0905587E-2,-2.6349027E-2,1.383505E-2,-5.737081E-2,-2.6890598E-3,-2.8331175E-2,5.1330753E-2,-2.0326357E-2,1.8602734E-2,5.1496025E-2,9.224921E-3],"categories":[],"categories_nodes":[],"categories_segments":[],"categories_sizes":[],"default_left":[0,0,0,0,0,0,0,0,0,0,0,0,0,0,0,0,0,0,0,0,0,0,0],"id":19,"left_children":[1,3,5,-1,7,9,11,13,15,17,19,21,-1,-1,-1,-1,-1,-1,-1,-1,-1,-1,-1],"loss_changes":[8.867894E2,5.8874207E0,2.1802917E1,0E0,5.9563255E0,4.350809E0,4.184265E-1,2.335402E0,1.551054E0,4.4234557E0,3.0092633E0,1.5831718E0,0E0,0E0,0E0,0E0,0E0,0E0,0E0,0E0,0E0,0E0,0E0],"parents":[2147483647,0,0,1,1,2,2,4,4,5,5,6,6,7,7,8,8,9,9,10,10,11,11],"right_children":[2,4,6,-1,8,10,12,14,16,18,20,22,-1,-1,-1,-1,-1,-1,-1,-1,-1,-1,-1],"split_conditions":[9.124362E-1,1.798621E-2,9.980732E-1,-6.282619E-2,1.5E1,3.8055556E0,9.992792E-1,1.3E1,8.270401E-1,1.3E1,9.932025E-1,3.6E1,6.0905587E-2,-2.6349027E-2,1.383505E-2,-5.737081E-2,-2.6890598E-3,-2.8331175E-2,5.1330753E-2,-2.0326357E-2,1.8602734E-2,5.1496025E-2,9.224921E-3],"split_indices":[0,0,0,0,16,7,0,16,25,16,0,16,0,0,0,0,0,0,0,0,0,0,0],"split_type":[0,0,0,0,0,0,0,0,0,0,0,0,0,0,0,0,0,0,0,0,0,0,0],"sum_hessian":[6.546224E2,3.1945413E2,3.3516827E2,2.8013486E2,3.931927E1,2.7814564E1,3.073537E2,1.4310508E1,2.5008762E1,9.901734E0,1.791283E1,2.5228678E1,2.8212503E2,9.588168E0,4.722339E0,2.3532902E1,1.475861E0,1.4602913E0,8.4414425E0,9.439392E0,8.473437E0,2.2236094E1,2.992584E0],"tree_param":{"num_deleted":"0","num_feature":"28","num_nodes":"23","size_leaf_vector":"1"}},{"base_weights":[3.4793233E-3,-1.1684296E0,1.101141E0,-1.235088E0,-7.069157E-1,2.5840753E-1,1.1817575E0,-6.191953E-2,-2.3534847E-2,-1.3997558E-1,-9.3840235E-1,3.6919528E-1,-4.5579635E-2,8.0184066E-1,5.9919834E-2,-3.9478723E-2,1.6074214E-2,-5.4109234E-2,1.4942276E-2,-1.7198524E-2,2.7321352E-2,-2.3084008E-3,4.6893194E-2],"categories":[],"categories_nodes":[],"categories_segments":[],"categories_sizes":[],"default_left":[0,0,0,0,0,0,0,0,0,0,0,0,0,0,0,0,0,0,0,0,0,0,0],"id":20,"left_children":[1,3,5,7,9,11,13,-1,-1,15,17,19,-1,21,-1,-1,-1,-1,-1,-1,-1,-1,-1],"loss_changes":[8.2431195E2,8.661346E0,2.2174377E1,9.7351074E-2,5.3088646E0,4.247117E0,9.463501E-1,0E0,0E0,4.2088113E0,5.528431E0,3.7613072E0,0E0,1.8521748E0,0E0,0E0,0E0,0E0,0E0,0E0,0E0,0E0,0E0],"parents":[2147483647,0,0,1,1,2,2,3,3,4,4,5,5,6,6,9,9,10,10,11,11,13,13],"right_children":[2,4,6,8,10,12,14,-1,-1,16,18,20,-1,22,-1,-1,-1,-1,-1,-1,-1,-1,-1],"split_conditions":[9.124362E-1,1.798621E-2,9.980732E-1,7.647059E-1,1.8697801E0,4.8E1,9.9911696E-1,-6.191953E-2,-2.3534847E-2,1.3E1,6.896552E-2,1.9217571E-2,-4.5579635E-2,6.8E0,5.9919834E-2,-3.9478723E-2,1.6074214E-2,-5.4109234E-2,1.4942276E-2,-1.7198524E-2,2.7321352E-2,-2.3084008E-3,4.6893194E-2],"split_indices":[0,0,0,11,3,16,0,0,0,16,12,8,0,5,0,0,0,0,0,0,0,0,0],"split_type":[0,0,0,0,0,0,0,0,0,0,0,0,0,0,0,0,0,0,0,0,0,0,0],"sum_hessian":[6.3880975E2,3.089246E2,3.2988513E2,2.684719E2,4.045272E1,2.9169039E1,3.007161E2,2.6669952E2,1.7723578E0,1.219364E1,2.8259079E1,2.727117E1,1.8978686E0,1.4681776E1,2.8603433E2,4.7691092E0,7.424531E0,2.5429241E1,2.8298392E0,5.2410054E0,2.2030165E1,2.1207826E0,1.2560993E1],"tree_param":{"num_deleted":"0","num_feature":"28","num_nodes":"23","size_leaf_vector":"1"}},{"base_weights":[-9.588873E-3,-1.1115209E0,1.135329E0,-1.2261268E0,-5.37223E-1,3.1346768E-1,1.1717644E0,-6.1475515E-2,-2.297361E-2,-8.3202326E-1,-1.9458282E-1,-6.287781E-2,4.8651766E-2,9.177559E-1,5.960561E-2,-4.7026925E-2,3.114822E-2,-2.3355788E-2,2.2184955E-2,1.8243907E-2,-6.1508425E-2,5.0244596E-2,1.23328995E-2],"categories":[],"categories_nodes":[],"categories_segments":[],"categories_sizes":[],"default_left":[0,0,0,0,0,0,0,0,0,0,0,0,0,0,0,0,0,0,0,0,0,0,0],"id":21,"left_children":[1,3,5,7,9,11,13,-1,-1,15,17,19,-1,21,-1,-1,-1,-1,-1,-1,-1,-1,-1],"loss_changes":[7.81805E2,2.0124268E1,8.733459E0,1.15875244E-1,5.3240194E0,3.6025522E0,4.081726E-1,0E0,0E0,5.14699E0,4.803521E0,5.4534855E0,0E0,1.2667675E0,0E0,0E0,0E0,0E0,0E0,0E0,0E0,0E0,0E0],"parents":[2147483647,0,0,1,1,2,2,3,3,4,4,5,5,6,6,9,9,10,10,11,11,13,13],"right_children":[2,4,6,8,10,12,14,-1,-1,16,18,20,-1,22,-1,-1,-1,-1,-1,-1,-1,-1,-1],"split_conditions":[9.932025E-1,1.798621E-2,9.980732E-1,7.647059E-1,3.142857E-2,2.6614532E0,9.992792E-1,-6.1475515E-2,-2.297361E-2,5.0277777E0,8.392076E-1,1.47902E0,4.8651766E-2,3.6E1,5.960561E-2,-4.7026925E-2,3.114822E-2,-2.3355788E-2,2.2184955E-2,1.8243907E-2,-6.1508425E-2,5.0244596E-2,1.23328995E-2],"split_indices":[0,0,0,11,8,6,0,0,0,7,0,6,0,16,0,0,0,0,0,0,0,0,0],"split_type":[0,0,0,0,0,0,0,0,0,0,0,0,0,0,0,0,0,0,0,0,0,0,0],"sum_hessian":[6.176824E2,3.1476468E2,3.029177E2,2.6145428E2,5.331041E1,1.3266755E1,2.8965094E2,2.597044E2,1.7498782E0,2.7887947E1,2.5422462E1,9.022969E0,4.243786E0,2.4901423E1,2.647495E2,2.6281416E1,1.6065323E0,1.800351E1,7.4189515E0,7.106275E0,1.9166938E0,2.1599535E1,3.3018885E0],"tree_param":{"num_deleted":"0","num_feature":"28","num_nodes":"23","size_leaf_vector":"1"}},{"base_weights":[-8.926381E-3,-1.0853249E0,1.1245707E0,-1.2033085E0,-5.242312E-1,4.0847388E-1,1.1642858E0,-6.0335036E-2,-2.2419646E-2,-6.787369E-2,-7.5084E-1,6.816557E-2,9.152875E-1,8.117247E-1,5.885735E-2,-2.706168E-2,2.0986853E-2,-6.400317E-2,-2.8076395E-2,-3.6417093E-2,3.337684E-2,5.2475515E-3,5.5101223E-2,4.989251E-2,3.0012706E-3],"categories":[],"categories_nodes":[],"categories_segments":[],"categories_sizes":[],"default_left":[0,0,0,0,0,0,0,0,0,0,0,0,0,0,0,0,0,0,0,0,0,0,0,0,0],"id":22,"left_children":[1,3,5,7,9,11,13,-1,-1,15,17,19,21,23,-1,-1,-1,-1,-1,-1,-1,-1,-1,-1,-1],"loss_changes":[7.33516E2,1.9782623E1,7.8525696E0,1.0940552E-1,5.6727085E0,2.8571954E0,3.0010986E-1,0E0,0E0,4.7196517E0,2.97649E0,5.8369265E0,9.011831E-1,1.7543573E0,0E0,0E0,0E0,0E0,0E0,0E0,0E0,0E0,0E0,0E0,0E0],"parents":[2147483647,0,0,1,1,2,2,3,3,4,4,5,5,6,6,9,9,10,10,11,11,12,12,13,13],"right_children":[2,4,6,8,10,12,14,-1,-1,16,18,20,22,24,-1,-1,-1,-1,-1,-1,-1,-1,-1,-1,-1],"split_conditions":[9.932025E-1,1.798621E-2,9.984988E-1,7.647059E-1,1.8697801E0,4.3489586E1,9.9911696E-1,-6.0335036E-2,-2.2419646E-2,2.6872965E-2,7.878788E-1,1.1166667E1,1.4E1,2.3E1,5.885735E-2,-2.706168E-2,2.0986853E-2,-6.400317E-2,-2.8076395E-2,-3.6417093E-2,3.337684E-2,5.2475515E-3,5.5101223E-2,4.989251E-2,3.0012706E-3],"split_indices":[0,0,0,11,3,3,0,0,0,8,4,5,16,16,0,0,0,0,0,0,0,0,0,0,0],"split_type":[0,0,0,0,0,0,0,0,0,0,0,0,0,0,0,0,0,0,0,0,0,0,0,0,0],"sum_hessian":[5.991957E2,3.0736053E2,2.918351E2,2.5301372E2,5.434682E1,1.5927802E1,2.7590732E2,2.5128609E2,1.7276224E0,1.8463503E1,3.5883316E1,1.0207983E1,5.719819E0,1.196725E1,2.6394006E2,9.312854E0,9.150649E0,7.9361343E0,2.7947184E1,4.2907743E0,5.917208E0,1.3637811E0,4.356038E0,9.329699E0,2.6375515E0],"tree_param":{"num_deleted":"0","num_feature":"28","num_nodes":"25","size_leaf_vector":"1"}},{"base_weights":[9.805585E-3,-1.1138834E0,1.0634991E0,-1.1925318E0,-6.0509896E-1,2.1408291E-1,5.7701297E-2,-5.980285E-2,-2.2150304E-2,-1.4941838E-1,-8.062743E-1,4.4449568E-1,-1.2748012E-1,-2.045144E-2,4.6605278E-2,-5.717152E-3,-4.602613E-2,-2.6995951E-2,3.1469945E-2,-3.1778928E-2,1.3760238E-2],"categories":[],"categories_nodes":[],"categories_segments":[],"categories_sizes":[],"default_left":[0,0,0,0,0,0,0,0,0,0,0,0,0,0,0,0,0,0,0,0,0],"id":23,"left_children":[1,3,5,7,9,11,-1,-1,-1,13,15,17,19,-1,-1,-1,-1,-1,-1,-1,-1],"loss_changes":[6.8387164E2,1.0463104E1,2.2673065E1,1.0708618E-1,3.49621E0,2.4125786E0,0E0,0E0,0E0,4.1185446E0,2.040369E0,3.6342454E0,2.8012283E0,0E0,0E0,0E0,0E0,0E0,0E0,0E0,0E0],"parents":[2147483647,0,0,1,1,2,2,3,3,4,4,5,5,9,9,10,10,11,11,12,12],"right_children":[2,4,6,8,10,12,-1,-1,-1,14,16,18,20,-1,-1,-1,-1,-1,-1,-1,-1],"split_conditions":[9.124362E-1,1.798621E-2,9.980732E-1,7.647059E-1,5E-1,4.68208E1,5.7701297E-2,-5.980285E-2,-2.2150304E-2,4.7826085E0,2.9535338E-2,7.567568E-1,7.75E0,-2.045144E-2,4.6605278E-2,-5.717152E-3,-4.602613E-2,-2.6995951E-2,3.1469945E-2,-3.1778928E-2,1.3760238E-2],"split_indices":[0,0,0,11,6,1,0,0,0,7,0,4,5,0,0,0,0,0,0,0,0],"split_type":[0,0,0,0,0,0,0,0,0,0,0,0,0,0,0,0,0,0,0,0,0],"sum_hessian":[5.755822E2,2.7851196E2,2.9707025E2,2.4005939E2,3.8452568E1,2.8935194E1,2.6813504E2,2.3834268E2,1.7167038E0,1.2310616E1,2.6141953E1,1.709908E1,1.1836114E1,1.0429023E1,1.8815928E0,3.9882743E0,2.2153679E1,2.4002533E0,1.4698826E1,4.977398E0,6.8587165E0],"tree_param":{"num_deleted":"0","num_feature":"28","num_nodes":"21","size_leaf_vector":"1"}},{"base_weights":[-1.10392235E-2,-1.0577892E0,1.0950223E0,-5.91708E-2,-5.0613034E-1,3.4824064E-1,1.1375071E0,-9.369942E-1,-3.380098E-1,-2.6207614E-1,5.603441E-1,8.5393417E-1,5.7929635E-2,-5.121533E-2,6.3587907E-3,-1.2997065E-4,-3.5912868E-2,-3.358906E-2,2.6528923E-2,9.567408E-3,5.2959897E-2,4.8294988E-2,2.606361E-5],"categories":[],"categories_nodes":[],"categories_segments":[],"categories_sizes":[],"default_left":[0,0,0,0,0,0,0,0,0,0,0,0,0,0,0,0,0,0,0,0,0,0,0],"id":24,"left_children":[1,3,5,-1,7,9,11,13,15,17,19,21,-1,-1,-1,-1,-1,-1,-1,-1,-1,-1,-1],"loss_changes":[6.446312E2,1.9225739E1,8.193237E0,0E0,3.6533432E0,2.2198749E0,5.3964233E-1,1.5071478E0,5.2257347E0,1.9189507E0,2.043529E0,2.0539837E0,0E0,0E0,0E0,0E0,0E0,0E0,0E0,0E0,0E0,0E0,0E0],"parents":[2147483647,0,0,1,1,2,2,4,4,5,5,6,6,7,7,8,8,9,9,10,10,11,11],"right_children":[2,4,6,-1,8,10,12,14,16,18,20,22,-1,-1,-1,-1,-1,-1,-1,-1,-1,-1,-1],"split_conditions":[9.932025E-1,1.798621E-2,9.984988E-1,-5.91708E-2,8.358209E-1,1.4E1,9.992792E-1,4.597701E-2,9.858337E1,8.163265E-2,2.6614532E0,3.6E1,5.7929635E-2,-5.121533E-2,6.3587907E-3,-1.2997065E-4,-3.5912868E-2,-3.358906E-2,2.6528923E-2,9.567408E-3,5.2959897E-2,4.8294988E-2,2.606361E-5],"split_indices":[0,0,0,0,4,16,0,8,2,12,6,16,0,0,0,0,0,0,0,0,0,0,0],"split_type":[0,0,0,0,0,0,0,0,0,0,0,0,0,0,0,0,0,0,0,0,0,0,0],"sum_hessian":[5.547865E2,2.8505807E2,2.6972845E2,2.312511E2,5.380697E1,1.5014039E1,2.5471442E2,1.3818693E1,3.9988274E1,3.811381E0,1.1202658E1,2.050106E1,2.3421335E2,1.2805496E1,1.013197E0,2.1781763E1,1.8206512E1,2.61318E0,1.1982012E0,7.2347665E0,3.9678912E0,1.8006805E1,2.4942555E0],"tree_param":{"num_deleted":"0","num_feature":"28","num_nodes":"23","size_leaf_vector":"1"}},{"base_weights":[5.555338E-3,8.372333E-1,-4.820609E-1,1.0947602E0,4.79444E-1,-1.21619225E-1,-8.963337E-1,5.5023838E-2,1.6430425E-2,-5.39956E-1,6.0945076E-1,4.800091E-1,-4.1695333E-1,-1.0112628E0,2.9733202E-1,2.9273687E-2,-4.0608644E-2,2.402953E-2,4.7865327E-2,1.0778223E-2,4.1191075E-2,-9.258915E-3,-3.8053572E-2,-3.758623E-2,-5.788944E-2,4.6200152E-2,-1.6216267E-2],"categories":[],"categories_nodes":[],"categories_segments":[],"categories_sizes":[],"default_left":[0,0,0,0,0,0,0,0,0,0,0,0,0,0,0,0,0,0,0,0,0,0,0,0,0,0,0],"id":25,"left_children":[1,3,5,7,9,11,13,-1,-1,15,17,19,21,23,25,-1,-1,-1,-1,-1,-1,-1,-1,-1,-1,-1,-1],"loss_changes":[2.1768457E2,1.7755096E1,5.041973E1,1.4019775E-1,1.1569115E1,3.25574E1,2.1877625E1,0E0,0E0,3.5768359E0,2.932663E0,5.3162956E0,9.643972E0,4.5942535E0,5.9821005E0,0E0,0E0,0E0,0E0,0E0,0E0,0E0,0E0,0E0,0E0,0E0,0E0],"parents":[2147483647,0,0,1,1,2,2,3,3,4,4,5,5,6,6,9,9,10,10,11,11,12,12,13,13,14,14],"right_children":[2,4,6,8,10,12,14,-1,-1,16,18,20,22,24,26,-1,-1,-1,-1,-1,-1,-1,-1,-1,-1,-1,-1],"split_conditions":[2.5357666E1,1.6063381E1,3E1,2.1276595E-2,6.1809045E-1,4.68208E1,4.913636E0,5.5023838E-2,1.6430425E-2,8.6E1,4.3645835E0,7.2328926E1,1.9E1,5.1E1,4.3786945E1,2.9273687E-2,-4.0608644E-2,2.402953E-2,4.7865327E-2,1.0778223E-2,4.1191075E-2,-9.258915E-3,-3.8053572E-2,-3.758623E-2,-5.788944E-2,4.6200152E-2,-1.6216267E-2],"split_indices":[1,1,16,22,4,1,7,0,0,16,7,2,16,16,1,0,0,0,0,0,0,0,0,0,0,0,0],"split_type":[0,0,0,0,0,0,0,0,0,0,0,0,0,0,0,0,0,0,0,0,0,0,0,0,0,0,0],"sum_hessian":[5.347823E2,1.973926E2,3.3738968E2,1.13580605E2,8.381199E1,1.8110835E2,1.5628133E2,1.1230628E2,1.2743275E0,9.123122E0,7.4688866E1,5.9425896E1,1.2168246E2,1.4269511E2,1.3586223E1,1.5527613E0,7.5703607E0,5.6237686E1,1.8451183E1,3.4509647E1,2.4916248E1,7.3629E1,4.805346E1,5.3702824E1,8.899229E1,6.5236278E0,7.0625954E0],"tree_param":{"num_deleted":"0","num_feature":"28","num_nodes":"27","size_leaf_vector":"1"}},{"base_weights":[8.780077E-3,-1.0205431E0,1.0937887E0,-1.1549482E0,-4.3630695E-1,3.8436738E-1,1.131826E0,-5.7946127E-2,-1.4012507E-2,4.0469486E-2,-4.9178275E-1,4.7182273E-2,9.401422E-1,8.7458074E-1,5.744691E-2,-2.9058322E-2,1.6237224E-2,2.1669399E-2,-4.3589123E-2,5.2472908E-2,1.3670414E-2,5.1868893E-2,1.9643566E-2],"categories":[],"categories_nodes":[],"categories_segments":[],"categories_sizes":[],"default_left":[0,0,0,0,0,0,0,0,0,0,0,0,0,0,0,0,0,0,0,0,0,0,0],"id":26,"left_children":[1,3,5,7,9,11,13,-1,-1,-1,15,17,19,21,-1,-1,-1,-1,-1,-1,-1,-1,-1],"loss_changes":[5.860014E2,2.0640015E1,6.4578247E0,4.3408203E-1,3.989277E0,2.6753972E0,6.0150146E-2,0E0,0E0,0E0,3.8651953E0,3.957359E0,1.0864353E-1,1.1041698E0,0E0,0E0,0E0,0E0,0E0,0E0,0E0,0E0,0E0],"parents":[2147483647,0,0,1,1,2,2,3,3,4,4,5,5,6,6,10,10,11,11,12,12,13,13],"right_children":[2,4,6,8,10,12,14,-1,-1,-1,16,18,20,22,-1,-1,-1,-1,-1,-1,-1,-1,-1],"split_conditions":[9.932025E-1,1.798621E-2,9.980732E-1,7.647059E-1,3.25E0,2.6614532E0,9.9923277E-1,-5.7946127E-2,-1.4012507E-2,4.0469486E-2,5.0277777E0,1.47902E0,1.12676054E-1,2.3E1,5.744691E-2,-2.9058322E-2,1.6237224E-2,2.1669399E-2,-4.3589123E-2,5.2472908E-2,1.3670414E-2,5.1868893E-2,1.9643566E-2],"split_indices":[0,0,0,11,7,6,0,0,0,0,7,6,14,16,0,0,0,0,0,0,0,0,0],"split_type":[0,0,0,0,0,0,0,0,0,0,0,0,0,0,0,0,0,0,0,0,0,0,0],"sum_hessian":[5.2270374E2,2.6826562E2,2.5443811E2,2.172986E2,5.096701E1,1.3513178E1,2.4092493E2,2.1599228E2,1.3063284E0,1.5935793E0,4.9373432E1,9.085784E0,4.4273934E0,1.8277077E1,2.2264784E2,4.47617E1,4.6117315E0,6.769301E0,2.3164828E0,3.3105721E0,1.1168214E0,1.2798275E1,5.4788027E0],"tree_param":{"num_deleted":"0","num_feature":"28","num_nodes":"23","size_leaf_vector":"1"}},{"base_weights":[6.771326E-3,-1.059297E0,1.0045404E0,-1.1429721E0,-5.7394844E-1,2.0758028E-1,1.1123935E0,-5.734802E-2,-1.9228814E-2,-9.904452E-3,-8.960143E-1,5.733644E-1,-8.7926045E-2,7.025528E-1,5.63757E-2,-1.5899485E-2,2.5211802E-2,-5.9241403E-2,-1.8805716E-2,4.8164282E-2,4.961316E-3,-1.805452E-2,1.6523289E-2,4.9871806E-2,9.2589725E-3],"categories":[],"categories_nodes":[],"categories_segments":[],"categories_sizes":[],"default_left":[0,0,0,0,0,0,0,0,0,0,0,0,0,0,0,0,0,0,0,0,0,0,0,0,0],"id":27,"left_children":[1,3,5,7,9,11,13,-1,-1,15,17,19,21,23,-1,-1,-1,-1,-1,-1,-1,-1,-1,-1,-1],"loss_changes":[5.416259E2,9.341583E0,2.2376831E1,1.90979E-1,6.9321156E0,3.5721602E0,6.4208984E-1,0E0,0E0,2.5202627E0,3.2046585E0,2.6206737E0,2.2781327E0,1.4764204E0,0E0,0E0,0E0,0E0,0E0,0E0,0E0,0E0,0E0,0E0,0E0],"parents":[2147483647,0,0,1,1,2,2,3,3,4,4,5,5,6,6,9,9,10,10,11,11,12,12,13,13],"right_children":[2,4,6,8,10,12,14,-1,-1,16,18,20,22,24,-1,-1,-1,-1,-1,-1,-1,-1,-1,-1,-1],"split_conditions":[9.124362E-1,1.798621E-2,9.984988E-1,7.647059E-1,8.291562E-1,3.9166667E0,9.9911696E-1,-5.734802E-2,-1.9228814E-2,3.1914894E-2,3.5E-2,8.717949E-1,2.6614532E0,6.132061E1,5.63757E-2,-1.5899485E-2,2.5211802E-2,-5.9241403E-2,-1.8805716E-2,4.8164282E-2,4.961316E-3,-1.805452E-2,1.6523289E-2,4.9871806E-2,9.2589725E-3],"split_indices":[0,0,0,11,6,7,0,0,0,8,8,4,6,2,0,0,0,0,0,0,0,0,0,0,0],"split_type":[0,0,0,0,0,0,0,0,0,0,0,0,0,0,0,0,0,0,0,0,0,0,0,0,0],"sum_hessian":[5.0719492E2,2.4517528E2,2.6201965E2,2.0796645E2,3.7208828E1,3.1581158E1,2.3043848E2,2.0636882E2,1.5976312E0,1.3898574E1,2.3310253E1,1.3692281E1,1.7888878E1,9.8880005E0,2.2055048E2,8.929385E0,4.9691887E0,1.416332E1,9.146933E0,6.9473057E0,6.744975E0,1.0905639E1,6.983239E0,5.707217E0,4.1807833E0],"tree_param":{"num_deleted":"0","num_feature":"28","num_nodes":"25","size_leaf_vector":"1"}},{"base_weights":[4.91238E-3,-1.0301031E0,1.0353684E0,-1.0974799E0,-1.4334132E-1,2.830057E-1,1.1075912E0,-1.1457137E0,-7.8795815E-1,2.4671109E-1,-6.892124E-1,-3.7558537E-2,9.760257E-1,8.517496E-1,5.634513E-2,-5.7510007E-2,-1.5668137E-2,3.1064437E-3,-4.555477E-2,-1.219968E-2,6.519049E-2,1.6089564E-2,-5.9519798E-2,2.6498443E-2,-2.5464153E-2,4.988969E-3,5.7789654E-2,4.8901994E-2,-1.4421035E-3],"categories":[],"categories_nodes":[],"categories_segments":[],"categories_sizes":[],"default_left":[0,0,0,0,0,0,0,0,0,0,0,0,0,0,0,0,0,0,0,0,0,0,0,0,0,0,0,0,0],"id":28,"left_children":[1,3,5,7,9,11,13,15,17,19,21,23,25,27,-1,-1,-1,-1,-1,-1,-1,-1,-1,-1,-1,-1,-1,-1,-1],"loss_changes":[5.2062726E2,1.4393341E1,1.2978058E1,2.474121E0,4.0765967E0,5.0946927E0,1.4117432E-1,3.6212158E-1,3.5840359E0,6.2510543E0,4.3911076E0,4.6952634E0,1.0247741E0,2.223009E0,0E0,0E0,0E0,0E0,0E0,0E0,0E0,0E0,0E0,0E0,0E0,0E0,0E0,0E0,0E0],"parents":[2147483647,0,0,1,1,2,2,3,3,4,4,5,5,6,6,7,7,8,8,9,9,10,10,11,11,12,12,13,13],"right_children":[2,4,6,8,10,12,14,16,18,20,22,24,26,28,-1,-1,-1,-1,-1,-1,-1,-1,-1,-1,-1,-1,-1,-1,-1],"split_conditions":[9.8087597E-1,5.9286547E-1,9.984988E-1,8.315778E-3,9.858337E1,4.97734E1,9.992792E-1,7.647059E-1,5.6666665E0,6.813434E1,5.345225E-1,3.7729637E1,2.7875244E1,3.5E1,5.634513E-2,-5.7510007E-2,-1.5668137E-2,3.1064437E-3,-4.555477E-2,-1.219968E-2,6.519049E-2,1.6089564E-2,-5.9519798E-2,2.6498443E-2,-2.5464153E-2,4.988969E-3,5.7789654E-2,4.8901994E-2,-1.4421035E-3],"split_indices":[0,0,0,0,2,3,0,11,5,2,6,2,1,16,0,0,0,0,0,0,0,0,0,0,0,0,0,0,0],"split_type":[0,0,0,0,0,0,0,0,0,0,0,0,0,0,0,0,0,0,0,0,0,0,0,0,0,0,0,0,0],"sum_hessian":[4.8614697E2,2.4253708E2,2.4360988E2,2.2518939E2,1.7347694E1,2.1767794E1,2.2184209E2,1.9249127E2,3.2698112E1,1.0437568E1,6.910127E0,1.5530014E1,6.2377796E0,1.8735584E1,2.031065E2,1.9107947E2,1.4118016E0,4.1998158E0,2.8498295E1,7.6538434E0,2.7837248E0,2.4088516E0,4.5012755E0,6.9931498E0,8.536864E0,1.3265887E0,4.911191E0,1.628885E1,2.4467323E0],"tree_param":{"num_deleted":"0","num_feature":"28","num_nodes":"29","size_leaf_vector":"1"}},{"base_weights":[1.3614165E-2,-1.0350628E0,9.9508077E-1,-1.136907E0,-4.912563E-1,2.701216E-1,1.0942302E0,-5.7060283E-2,-2.1063754E-2,-5.764177E-2,-7.411743E-1,9.5781125E-3,5.692325E-1,7.837372E-1,5.595072E-2,-1.9722292E-2,2.5809884E-2,-4.6647545E-2,-3.7498336E-4,-4.7448374E-2,1.3470793E-2,-1.3120758E-2,3.522029E-2,4.970242E-2,1.0994512E-2],"categories":[],"categories_nodes":[],"categories_segments":[],"categories_sizes":[],"default_left":[0,0,0,0,0,0,0,0,0,0,0,0,0,0,0,0,0,0,0,0,0,0,0,0,0],"id":29,"left_children":[1,3,5,7,9,11,13,-1,-1,15,17,19,21,23,-1,-1,-1,-1,-1,-1,-1,-1,-1,-1,-1],"loss_changes":[4.854237E2,1.2069809E1,1.7215363E1,1.07681274E-1,4.045764E0,2.3821716E0,7.696533E-1,0E0,0E0,3.0792263E0,3.3486166E0,4.58731E0,1.7863307E0,2.0529108E0,0E0,0E0,0E0,0E0,0E0,0E0,0E0,0E0,0E0,0E0,0E0],"parents":[2147483647,0,0,1,1,2,2,3,3,4,4,5,5,6,6,9,9,10,10,11,11,12,12,13,13],"right_children":[2,4,6,8,10,12,14,-1,-1,16,18,20,22,24,-1,-1,-1,-1,-1,-1,-1,-1,-1,-1,-1],"split_conditions":[9.124362E-1,1.798621E-2,9.984988E-1,7.647059E-1,8.291562E-1,3.2118056E-2,9.992792E-1,-5.7060283E-2,-2.1063754E-2,3.1914894E-2,4.477612E-2,7.75E0,1.1E1,2.3E1,5.595072E-2,-1.9722292E-2,2.5809884E-2,-4.6647545E-2,-3.7498336E-4,-4.7448374E-2,1.3470793E-2,-1.3120758E-2,3.522029E-2,4.970242E-2,1.0994512E-2],"split_indices":[0,0,0,11,6,8,0,0,0,8,8,5,16,16,0,0,0,0,0,0,0,0,0,0,0],"split_type":[0,0,0,0,0,0,0,0,0,0,0,0,0,0,0,0,0,0,0,0,0,0,0,0,0],"sum_hessian":[4.6963184E2,2.2701566E2,2.4261618E2,1.9028786E2,3.6727783E1,2.9637503E1,2.1297867E2,1.8856052E2,1.7273477E0,1.3878628E1,2.2849157E1,1.6391525E1,1.3245977E1,1.815524E1,1.9482343E2,8.9425745E0,4.9360533E0,1.7898912E1,4.9502444E0,2.9301186E0,1.3461408E1,1.72034E0,1.1525638E1,1.2667404E1,5.487835E0],"tree_param":{"num_deleted":"0","num_feature":"28","num_nodes":"25","size_leaf_vector":"1"}},{"base_weights":[1.8169897E-2,-1.0156031E0,9.855534E-1,-1.1164135E0,-4.7060332E-1,2.657267E-1,1.0856731E0,-1.1210216E0,-1.2358645E-2,6.155217E-3,-7.455581E-1,6.03461E-1,-1.3651355E-1,7.5944674E-1,5.5581786E-2,-3.3925954E-2,-5.6554403E-2,-3.3928815E-2,1.555004E-2,-4.5270182E-2,-4.5471233E-3,3.9170496E-2,-1.6440688E-2,-3.6693595E-2,1.53339375E-2,4.9019944E-2,8.376994E-3],"categories":[],"categories_nodes":[],"categories_segments":[],"categories_sizes":[],"default_left":[0,0,0,0,0,0,0,0,0,0,0,0,0,0,0,0,0,0,0,0,0,0,0,0,0,0,0],"id":30,"left_children":[1,3,5,7,9,11,13,15,-1,17,19,21,23,25,-1,-1,-1,-1,-1,-1,-1,-1,-1,-1,-1,-1,-1],"loss_changes":[4.5263016E2,1.1496033E1,1.6561264E1,4.5962524E-1,4.7084827E0,4.1405535E0,8.91449E-1,4.6218872E-2,0E0,3.1577914E0,2.2999096E0,3.0126991E0,4.0505357E0,2.224265E0,0E0,0E0,0E0,0E0,0E0,0E0,0E0,0E0,0E0,0E0,0E0,0E0,0E0],"parents":[2147483647,0,0,1,1,2,2,3,3,4,4,5,5,6,6,7,7,9,9,10,10,11,11,12,12,13,13],"right_children":[2,4,6,8,10,12,14,16,-1,18,20,22,24,26,-1,-1,-1,-1,-1,-1,-1,-1,-1,-1,-1,-1,-1],"split_conditions":[9.124362E-1,1.798621E-2,9.984988E-1,7.647059E-1,8.291562E-1,4.5494E1,9.992792E-1,5.3333335E0,-1.2358645E-2,6.656919E-2,4.477612E-2,4.1E1,7.75E0,2.3E1,5.5581786E-2,-3.3925954E-2,-5.6554403E-2,-3.3928815E-2,1.555004E-2,-4.5270182E-2,-4.5471233E-3,3.9170496E-2,-1.6440688E-2,-3.6693595E-2,1.53339375E-2,4.9019944E-2,8.376994E-3],"split_indices":[0,0,0,11,6,1,0,5,0,0,8,16,5,16,0,0,0,0,0,0,0,0,0,0,0,0,0],"split_type":[0,0,0,0,0,0,0,0,0,0,0,0,0,0,0,0,0,0,0,0,0,0,0,0,0,0,0],"sum_hessian":[4.5060443E2,2.1780359E2,2.3280084E2,1.8291985E2,3.488375E1,2.8872377E1,2.0392847E2,1.816671E2,1.2527429E0,1.3117039E1,2.1766714E1,1.5422707E1,1.3449672E1,1.7263233E1,1.8666524E2,5.562266E0,1.7610483E2,3.663121E0,9.4539175E0,1.7186876E1,4.579838E0,1.306128E1,2.3614259E0,5.449145E0,8.000526E0,1.20927925E1,5.1704407E0],"tree_param":{"num_deleted":"0","num_feature":"28","num_nodes":"27","size_leaf_vector":"1"}},{"base_weights":[9.172494E-3,-9.8117614E-1,1.0092233E0,-1.1023494E0,-4.3796346E-1,2.8901997E-1,1.0879015E0,-5.5616915E-2,-6.030309E-1,-4.982429E-1,3.6597557E-2,-7.1502756E-3,7.6907897E-1,7.2978973E-1,5.504474E-2,1.9281637E-2,-4.5128662E-2,-2.8643323E-2,2.134735E-2,-4.205903E-2,1.3867664E-2,6.040876E-2,4.2517334E-3,4.870094E-2,8.210609E-3],"categories":[],"categories_nodes":[],"categories_segments":[],"categories_sizes":[],"default_left":[0,0,0,0,0,0,0,0,0,0,0,0,0,0,0,0,0,0,0,0,0,0,0,0,0],"id":31,"left_children":[1,3,5,7,9,11,13,-1,15,17,-1,19,21,23,-1,-1,-1,-1,-1,-1,-1,-1,-1,-1,-1],"loss_changes":[4.3474692E2,1.4034775E1,1.2061401E1,2.2535706E-1,3.3184881E0,3.2573626E0,1.11068726E-1,0E0,2.0384274E0,3.035738E0,0E0,3.8247776E0,2.5211787E0,1.2003255E0,0E0,0E0,0E0,0E0,0E0,0E0,0E0,0E0,0E0,0E0,0E0],"parents":[2147483647,0,0,1,1,2,2,3,3,4,4,5,5,6,6,8,8,9,9,11,11,12,12,13,13],"right_children":[2,4,6,8,10,12,14,-1,16,18,-1,20,22,24,-1,-1,-1,-1,-1,-1,-1,-1,-1,-1,-1],"split_conditions":[9.8087597E-1,1.798621E-2,9.984988E-1,6.153846E-2,5.368421E0,3.6708113E-2,9.9911696E-1,-5.5616915E-2,8.419565E1,7.4074075E-2,3.6597557E-2,1.5E1,1.7E1,6.132061E1,5.504474E-2,1.9281637E-2,-4.5128662E-2,-2.8643323E-2,2.134735E-2,-4.205903E-2,1.3867664E-2,6.040876E-2,4.2517334E-3,4.870094E-2,8.210609E-3],"split_indices":[0,0,0,8,7,8,0,0,2,11,0,16,16,2,0,0,0,0,0,0,0,0,0,0,0],"split_type":[0,0,0,0,0,0,0,0,0,0,0,0,0,0,0,0,0,0,0,0,0,0,0,0,0],"sum_hessian":[4.3696152E2,2.1955524E2,2.174063E2,1.7867033E2,4.0884903E1,2.1871584E1,1.9553471E2,1.7396246E2,4.707867E0,3.9427532E1,1.4573699E0,1.413572E1,7.7358646E0,8.847732E0,1.8668698E2,1.0278753E0,3.679992E0,3.683715E1,2.5903811E0,3.0977924E0,1.1037928E1,4.244832E0,3.4910326E0,5.6749816E0,3.17275E0],"tree_param":{"num_deleted":"0","num_feature":"28","num_nodes":"25","size_leaf_vector":"1"}},{"base_weights":[7.877527E-3,-9.325643E-1,1.0246474E0,-1.0922431E0,-3.7485626E-1,3.7028927E-1,1.0744342E0,-1.0969014E0,-1.9291312E-2,2.1443207E-2,-5.872784E-1,-5.9275466E-1,5.6587136E-1,7.74126E-1,5.4875743E-2,-5.62354E-2,-4.235434E-2,-5.365162E-3,4.8451696E-2,-5.836128E-2,-2.0003377E-2,1.2173716E-2,-5.881815E-2,4.5696534E-2,3.0501045E-3,4.5936044E-2,-4.466881E-3],"categories":[],"categories_nodes":[],"categories_segments":[],"categories_sizes":[],"default_left":[0,0,0,0,0,0,0,0,0,0,0,0,0,0,0,0,0,0,0,0,0,0,0,0,0,0,0],"id":32,"left_children":[1,3,5,7,9,11,13,15,-1,17,19,21,23,25,-1,-1,-1,-1,-1,-1,-1,-1,-1,-1,-1,-1,-1],"loss_changes":[4.0090384E2,1.8987518E1,6.165161E0,1.322937E-1,4.2220426E0,3.305699E0,4.4432068E-1,2.084198E-1,0E0,2.350503E0,3.0713425E0,1.8239021E0,2.3374825E0,2.1693048E0,0E0,0E0,0E0,0E0,0E0,0E0,0E0,0E0,0E0,0E0,0E0,0E0,0E0],"parents":[2147483647,0,0,1,1,2,2,3,3,4,4,5,5,6,6,7,7,9,9,10,10,11,11,12,12,13,13],"right_children":[2,4,6,8,10,12,14,16,-1,18,20,22,24,26,-1,-1,-1,-1,-1,-1,-1,-1,-1,-1,-1,-1,-1],"split_conditions":[9.932025E-1,1.798621E-2,9.984988E-1,7.647059E-1,1.8697801E0,3.483871E0,9.992792E-1,1E0,-1.9291312E-2,4.527693E0,7.8333336E-1,8.8461536E-1,5.4150383E1,3.6E1,5.4875743E-2,-5.62354E-2,-4.235434E-2,-5.365162E-3,4.8451696E-2,-5.836128E-2,-2.0003377E-2,1.2173716E-2,-5.881815E-2,4.5696534E-2,3.0501045E-3,4.5936044E-2,-4.466881E-3],"split_indices":[0,0,0,11,3,7,0,4,0,6,4,4,1,16,0,0,0,0,0,0,0,0,0,0,0,0,0],"split_type":[0,0,0,0,0,0,0,0,0,0,0,0,0,0,0,0,0,0,0,0,0,0,0,0,0,0,0],"sum_hessian":[4.1726285E2,2.1681071E2,2.0045212E2,1.6780702E2,4.9003693E1,1.4769637E1,1.8568248E2,1.6615855E2,1.6484666E0,1.741428E1,3.1589413E1,2.1503952E0,1.2619242E1,1.5717581E1,1.699649E2,1.463647E2,1.9793865E1,1.6111958E1,1.3023236E0,6.431357E0,2.5158056E1,1.1234546E0,1.0269407E0,6.9900413E0,5.6292005E0,1.3408253E1,2.309329E0],"tree_param":{"num_deleted":"0","num_feature":"28","num_nodes":"27","size_leaf_vector":"1"}},{"base_weights":[-1.8895511E-3,-9.2620784E-1,1.010884E0,-1.0839872E0,-3.7992248E-1,4.798796E-1,5.4054346E-2,-7.4757576E-1,-5.529363E-2,5.405746E-2,-6.2571764E-1,2.440674E-1,8.8184905E-1,3.399669E-3,-4.686549E-2,-1.7943943E-2,2.7188411E-2,-4.842648E-2,-2.0124624E-2,-3.3421814E-2,2.0988332E-2,4.736295E-2,1.0274119E-2],"categories":[],"categories_nodes":[],"categories_segments":[],"categories_sizes":[],"default_left":[0,0,0,0,0,0,0,0,0,0,0,0,0,0,0,0,0,0,0,0,0,0,0],"id":33,"left_children":[1,3,5,7,9,11,-1,13,-1,15,17,19,21,-1,-1,-1,-1,-1,-1,-1,-1,-1,-1],"loss_changes":[3.819894E2,1.7976715E1,6.7396393E0,3.8804626E-1,5.29791E0,2.1103811E0,0E0,2.1008344E0,0E0,3.9896533E0,2.0271835E0,2.981421E0,1.8975067E-1,0E0,0E0,0E0,0E0,0E0,0E0,0E0,0E0,0E0,0E0],"parents":[2147483647,0,0,1,1,2,2,3,3,4,4,5,5,7,7,9,9,10,10,11,11,12,12],"right_children":[2,4,6,8,10,12,-1,14,-1,16,18,20,22,-1,-1,-1,-1,-1,-1,-1,-1,-1,-1],"split_conditions":[9.932025E-1,1.798621E-2,9.9911696E-1,6.6666665E0,1.8697801E0,2.6614532E0,5.4054346E-2,5.6769344E1,-5.529363E-2,2.6872965E-2,3.2893276E1,3.483871E0,1.18644066E-1,3.399669E-3,-4.686549E-2,-1.7943943E-2,2.7188411E-2,-4.842648E-2,-2.0124624E-2,-3.3421814E-2,2.0988332E-2,4.736295E-2,1.0274119E-2],"split_indices":[0,0,0,5,3,6,0,3,0,8,1,7,14,0,0,0,0,0,0,0,0,0,0],"split_type":[0,0,0,0,0,0,0,0,0,0,0,0,0,0,0,0,0,0,0,0,0,0,0],"sum_hessian":[4.060536E2,2.123425E2,1.937111E2,1.639933E2,4.8349194E1,2.3534536E1,1.7017656E2,1.2164582E1,1.5182872E2,1.7764309E1,3.0584887E1,1.5845865E1,7.6886716E0,2.4169588E0,9.747623E0,9.782566E0,7.981742E0,1.0744898E1,1.9839989E1,2.1056452E0,1.374022E1,6.64549E0,1.0431815E0],"tree_param":{"num_deleted":"0","num_feature":"28","num_nodes":"23","size_leaf_vector":"1"}},{"base_weights":[1.3734495E-2,7.73276E-1,-4.0366784E-1,1.008186E0,4.4022515E-1,-1.81191E-2,-7.638069E-1,5.295959E-2,7.4306077E-1,-6.369703E-1,5.781703E-1,2.284604E-1,-5.596916E-1,-8.3801174E-1,7.177035E-1,4.0952355E-2,1.7394678E-3,-4.0742405E-2,5.502192E-3,3.1353686E-2,-3.4783648E-3,2.5749689E-2,-2.4627784E-4,-3.359663E-2,3.4085937E-2,-1.8925412E-2,-4.717087E-2,4.3360066E-2,-1.2995905E-3],"categories":[],"categories_nodes":[],"categories_segments":[],"categories_sizes":[],"default_left":[0,0,0,0,0,0,0,0,0,0,0,0,0,0,0,0,0,0,0,0,0,0,0,0,0,0,0,0,0],"id":34,"left_children":[1,3,5,7,9,11,13,-1,15,17,19,21,23,25,27,-1,-1,-1,-1,-1,-1,-1,-1,-1,-1,-1,-1,-1,-1],"loss_changes":[1.2426859E2,1.04316025E1,3.5112865E1,3.0477142E-1,9.175208E0,1.6580687E1,1.4978378E1,0E0,8.5290146E-1,1.046927E0,1.7245235E0,5.711419E0,5.86928E0,5.6971893E0,7.7595234E-1,0E0,0E0,0E0,0E0,0E0,0E0,0E0,0E0,0E0,0E0,0E0,0E0,0E0,0E0],"parents":[2147483647,0,0,1,1,2,2,3,3,4,4,5,5,6,6,8,8,9,9,10,10,11,11,12,12,13,13,14,14],"right_children":[2,4,6,8,10,12,14,-1,16,18,20,22,24,26,28,-1,-1,-1,-1,-1,-1,-1,-1,-1,-1,-1,-1,-1,-1],"split_conditions":[2.5357666E1,1.6358582E1,2.5E1,7.5384617E-1,6.1809045E-1,9.935981E1,5.2131147E0,5.295959E-2,4.4444446E-2,8.77193E-3,2.0285715E1,4.68208E1,5.625E0,3.1224756E1,6.208804E1,4.0952355E-2,1.7394678E-3,-4.0742405E-2,5.502192E-3,3.1353686E-2,-3.4783648E-3,2.5749689E-2,-2.4627784E-4,-3.359663E-2,3.4085937E-2,-1.8925412E-2,-4.717087E-2,4.3360066E-2,-1.2995905E-3],"split_indices":[1,1,16,4,4,1,7,0,12,12,5,1,7,1,1,0,0,0,0,0,0,0,0,0,0,0,0,0,0],"split_type":[0,0,0,0,0,0,0,0,0,0,0,0,0,0,0,0,0,0,0,0,0,0,0,0,0,0,0,0,0],"sum_hessian":[3.8998737E2,1.3800638E2,2.5198097E2,7.973791E1,5.826848E1,1.2220457E2,1.2977641E2,6.436085E1,1.537706E1,6.2040787E0,5.20644E1,8.436919E1,3.7835377E1,1.2399995E2,5.7764664E0,1.3745935E1,1.6311244E0,4.93755E0,1.2665284E0,4.8439198E1,3.625202E0,3.733074E1,4.7038445E1,3.511887E1,2.7165072E0,2.3993608E1,1.0000634E2,4.6713586E0,1.1051078E0],"tree_param":{"num_deleted":"0","num_feature":"28","num_nodes":"29","size_leaf_vector":"1"}},{"base_weights":[-5.6992224E-3,7.405213E-1,-4.131659E-1,1.0331621E0,3.6525202E-1,-2.129977E-1,-9.837362E-1,5.2069295E-2,1.0410579E-2,6.069842E-1,-1.2103814E-1,2.4354064E-1,-4.7649562E-1,-1.0528759E0,3.132407E-2,-6.830701E-3,3.2886107E-2,-2.9778337E-2,3.9116673E-2,2.8384972E-2,2.2035816E-3,-1.1586413E-2,-4.124619E-2,-5.368513E-2,-1.2747337E-2],"categories":[],"categories_nodes":[],"categories_segments":[],"categories_sizes":[],"default_left":[0,0,0,0,0,0,0,0,0,0,0,0,0,0,0,0,0,0,0,0,0,0,0,0,0],"id":35,"left_children":[1,3,5,7,9,11,13,-1,-1,15,17,19,21,23,-1,-1,-1,-1,-1,-1,-1,-1,-1,-1,-1],"loss_changes":[1.1758754E2,1.4622696E1,2.8357811E1,3.000946E-1,7.290264E0,2.2544815E1,7.8609505E0,0E0,0E0,1.6432886E0,9.561761E0,4.4294806E0,9.919544E0,7.631607E-1,0E0,0E0,0E0,0E0,0E0,0E0,0E0,0E0,0E0,0E0,0E0],"parents":[2147483647,0,0,1,1,2,2,3,3,4,4,5,5,6,6,9,9,10,10,11,11,12,12,13,13],"right_children":[2,4,6,8,10,12,14,-1,-1,16,18,20,22,24,-1,-1,-1,-1,-1,-1,-1,-1,-1,-1,-1],"split_conditions":[2.5357666E1,1.6063381E1,5.1E1,6.666667E-2,5.5E1,4.68208E1,5.177778E0,5.2069295E-2,1.0410579E-2,6.1666665E0,4.53211E0,2E1,2.1E1,4.9607844E0,3.132407E-2,-6.830701E-3,3.2886107E-2,-2.9778337E-2,3.9116673E-2,2.8384972E-2,2.2035816E-3,-1.1586413E-2,-4.124619E-2,-5.368513E-2,-1.2747337E-2],"split_indices":[1,1,16,12,16,1,7,0,0,5,7,16,16,7,0,0,0,0,0,0,0,0,0,0,0],"split_type":[0,0,0,0,0,0,0,0,0,0,0,0,0,0,0,0,0,0,0,0,0,0,0,0,0],"sum_hessian":[3.8471857E2,1.355887E2,2.4912987E2,7.519631E1,6.039238E1,1.854451E2,6.3684776E1,7.419433E1,1.0019909E0,4.017394E1,2.0218441E1,6.789152E1,1.1755358E2,6.1394733E1,2.2900429E0,2.4579833E0,3.7715958E1,1.3478893E1,6.7395477E0,2.5159138E1,4.273238E1,7.002604E1,4.752754E1,5.9496212E1,1.898522E0],"tree_param":{"num_deleted":"0","num_feature":"28","num_nodes":"25","size_leaf_vector":"1"}},{"base_weights":[-8.484328E-3,-9.7360647E-1,9.26795E-1,-1.0805043E0,-5.0578004E-1,1.0978215E-1,1.0507475E0,-1.0861006E0,-1.2141584E-2,-3.7887584E-2,-7.35378E-1,5.426427E-1,-2.202442E-1,7.5511634E-1,5.4006573E-2,-5.4618306E-2,-2.1455064E-2,-3.3580482E-2,2.0089936E-2,-4.496218E-2,1.8838963E-2,-6.1843856E-3,4.6361107E-2,-3.0109925E-2,1.1488443E-2,4.418367E-2,-4.763899E-3],"categories":[],"categories_nodes":[],"categories_segments":[],"categories_sizes":[],"default_left":[0,0,0,0,0,0,0,0,0,0,0,0,0,0,0,0,0,0,0,0,0,0,0,0,0,0,0],"id":36,"left_children":[1,3,5,7,9,11,13,15,-1,17,19,21,23,25,-1,-1,-1,-1,-1,-1,-1,-1,-1,-1,-1,-1,-1],"loss_changes":[3.4010693E2,8.726746E0,1.926329E1,4.3972778E-1,3.8792171E0,3.8799896E0,6.266632E-1,1.4367676E-1,0E0,3.8994997E0,4.7752266E0,3.1068351E0,2.827892E0,2.0885296E0,0E0,0E0,0E0,0E0,0E0,0E0,0E0,0E0,0E0,0E0,0E0,0E0,0E0],"parents":[2147483647,0,0,1,1,2,2,3,3,4,4,5,5,6,6,7,7,9,9,10,10,11,11,12,12,13,13],"right_children":[2,4,6,8,10,12,14,16,-1,18,20,22,24,26,-1,-1,-1,-1,-1,-1,-1,-1,-1,-1,-1,-1,-1],"split_conditions":[9.124362E-1,1.798621E-2,9.980732E-1,7.647059E-1,1.8697801E0,3.9166667E0,9.992792E-1,7.2463766E-2,-1.2141584E-2,1.3E1,6.896552E-2,3.536232E0,4.358852E0,3.6E1,5.4006573E-2,-5.4618306E-2,-2.1455064E-2,-3.3580482E-2,2.0089936E-2,-4.496218E-2,1.8838963E-2,-6.1843856E-3,4.6361107E-2,-3.0109925E-2,1.1488443E-2,4.418367E-2,-4.763899E-3],"split_indices":[0,0,0,11,3,7,0,8,0,16,12,7,7,16,0,0,0,0,0,0,0,0,0,0,0,0,0],"split_type":[0,0,0,0,0,0,0,0,0,0,0,0,0,0,0,0,0,0,0,0,0,0,0,0,0,0,0],"sum_hessian":[3.747838E2,1.8442905E2,1.9035477E2,1.490595E2,3.5369556E1,2.5323656E1,1.6503111E2,1.4777567E2,1.2838249E0,1.2026351E1,2.3343204E1,1.0676363E1,1.4647293E1,1.7333857E1,1.4769727E2,1.4572331E2,2.0523558E0,4.710135E0,7.316216E0,2.051235E1,2.830854E0,4.1552577E0,6.5211053E0,7.7398324E0,6.9074607E0,1.5023559E1,2.3102982E0],"tree_param":{"num_deleted":"0","num_feature":"28","num_nodes":"27","size_leaf_vector":"1"}},{"base_weights":[-6.2821587E-3,-8.591261E-1,1.0105249E0,-1.0725505E0,-2.9055586E-1,2.4169429E-1,1.0470817E0,-1.0853943E0,-4.9801674E-1,-3.6148134E-1,6.4972514E-1,-3.3185038E-1,4.28552E-2,7.162631E-1,5.3730734E-2,-1.9630518E-2,-5.461177E-2,1.8558519E-2,-4.151479E-2,-2.1180607E-2,4.18174E-2,4.1740987E-2,4.724035E-3,3.757285E-2,-4.9026575E-2,4.3853622E-2,-1.0721074E-2],"categories":[],"categories_nodes":[],"categories_segments":[],"categories_sizes":[],"default_left":[0,0,0,0,0,0,0,0,0,0,0,0,0,0,0,0,0,0,0,0,0,0,0,0,0,0,0],"id":37,"left_children":[1,3,5,7,9,11,13,15,17,19,21,23,-1,25,-1,-1,-1,-1,-1,-1,-1,-1,-1,-1,-1,-1,-1],"loss_changes":[3.1172766E2,2.3411087E1,4.3556824E0,5.055847E-1,3.884585E0,3.370439E0,6.533203E-1,2.2436523E-1,1.7371721E0,4.1893177E0,3.5235786E-1,4.423561E0,0E0,2.4333892E0,0E0,0E0,0E0,0E0,0E0,0E0,0E0,0E0,0E0,0E0,0E0,0E0,0E0],"parents":[2147483647,0,0,1,1,2,2,3,3,4,4,5,5,6,6,7,7,8,8,9,9,10,10,11,11,13,13],"right_children":[2,4,6,8,10,12,14,16,18,20,22,24,-1,26,-1,-1,-1,-1,-1,-1,-1,-1,-1,-1,-1,-1,-1],"split_conditions":[9.967269E-1,1.798621E-2,9.984988E-1,6.153846E-2,7.633588E-2,8.250364E1,9.992792E-1,3.3888888E0,8.7776146E1,5.4803147E0,4.303704E0,2.5271767E1,4.28552E-2,3.6E1,5.3730734E-2,-1.9630518E-2,-5.461177E-2,1.8558519E-2,-4.151479E-2,-2.1180607E-2,4.18174E-2,4.1740987E-2,4.724035E-3,3.757285E-2,-4.9026575E-2,4.3853622E-2,-1.0721074E-2],"split_indices":[0,0,0,8,11,2,0,7,2,7,7,2,0,16,0,0,0,0,0,0,0,0,0,0,0,0,0],"split_type":[0,0,0,0,0,0,0,0,0,0,0,0,0,0,0,0,0,0,0,0,0,0,0,0,0,0,0],"sum_hessian":[3.5747266E2,1.9449533E2,1.6297733E2,1.4076857E2,5.372676E1,7.7431035E0,1.5523422E2,1.3682077E2,3.9478123E0,5.053078E1,3.195981E0,4.2463703E0,3.4967334E0,1.400257E1,1.4123166E2,1.9088128E0,1.3491196E2,1.0594423E0,2.88837E0,4.8653496E1,1.8772827E0,2.019312E0,1.1766692E0,1.5310519E0,2.7153184E0,1.1988696E1,2.013874E0],"tree_param":{"num_deleted":"0","num_feature":"28","num_nodes":"27","size_leaf_vector":"1"}},{"base_weights":[-3.5139313E-4,-8.73119E-1,9.7309995E-1,-1.0505576E0,-3.6155656E-1,3.868588E-1,5.287188E-2,-6.864878E-1,-1.0766586E0,5.573718E-1,-4.351822E-1,-2.9885226E-1,5.294432E-1,1.5250402E-2,-4.120367E-2,-5.417799E-2,-8.384488E-3,4.001511E-2,-3.4973677E-3,-5.2090693E-2,-1.597707E-2,-4.58545E-2,3.3094354E-2,4.444604E-2,9.069654E-3],"categories":[],"categories_nodes":[],"categories_segments":[],"categories_sizes":[],"default_left":[0,0,0,0,0,0,0,0,0,0,0,0,0,0,0,0,0,0,0,0,0,0,0,0,0],"id":38,"left_children":[1,3,5,7,9,11,-1,13,15,17,19,21,23,-1,-1,-1,-1,-1,-1,-1,-1,-1,-1,-1,-1],"loss_changes":[2.9564294E2,1.6274689E1,7.724243E0,5.5041504E-1,3.542583E0,2.3352137E0,0E0,1.8661637E0,6.015625E-1,6.7417705E-1,2.87438E0,3.2632914E0,2.1901793E0,0E0,0E0,0E0,0E0,0E0,0E0,0E0,0E0,0E0,0E0,0E0,0E0],"parents":[2147483647,0,0,1,1,2,2,3,3,4,4,5,5,7,7,8,8,9,9,10,10,11,11,12,12],"right_children":[2,4,6,8,10,12,-1,14,16,18,20,22,24,-1,-1,-1,-1,-1,-1,-1,-1,-1,-1,-1,-1],"split_conditions":[9.932025E-1,1.798621E-2,9.9911696E-1,6.6666665E0,3.3888888E0,3.483871E0,5.287188E-2,8.419565E1,4.0449437E-1,5.345225E-1,7.8333336E-1,2.0548046E0,4.067227E0,1.5250402E-2,-4.120367E-2,-5.417799E-2,-8.384488E-3,4.001511E-2,-3.4973677E-3,-5.2090693E-2,-1.597707E-2,-4.58545E-2,3.3094354E-2,4.444604E-2,9.069654E-3],"split_indices":[0,0,0,5,7,7,0,2,11,6,4,6,7,0,0,0,0,0,0,0,0,0,0,0,0],"split_type":[0,0,0,0,0,0,0,0,0,0,0,0,0,0,0,0,0,0,0,0,0,0,0,0,0],"sum_hessian":[3.4598026E2,1.824785E2,1.6350174E2,1.3470248E2,4.777602E1,2.1266031E1,1.4223572E2,1.0837469E1,1.2386501E2,3.0565538E0,4.4719467E1,3.4721153E0,1.7793915E1,1.1723309E0,9.665138E0,1.2274105E2,1.1239631E0,2.0045419E0,1.0520118E0,5.877593E0,3.8841873E1,2.1402762E0,1.3318391E0,7.9888096E0,9.805106E0],"tree_param":{"num_deleted":"0","num_feature":"28","num_nodes":"25","size_leaf_vector":"1"}},{"base_weights":[9.2668375E-3,-8.506446E-1,9.7203416E-1,-1.0507004E0,-2.992421E-1,4.1053185E-1,1.0460505E0,-1.622373E-2,-1.0577523E0,2.5682647E-2,-5.212634E-1,6.2000567E-1,-4.714192E-2,7.090588E-1,5.32175E-2,-5.320201E-2,-1.585496E-2,-1.1822704E-2,4.108874E-2,3.7100434E-2,-3.097396E-2,3.5294145E-2,-1.0816567E-2,-5.3815115E-2,2.3568189E-2,4.86175E-2,-1.8190527E-2],"categories":[],"categories_nodes":[],"categories_segments":[],"categories_sizes":[],"default_left":[0,0,0,0,0,0,0,0,0,0,0,0,0,0,0,0,0,0,0,0,0,0,0,0,0,0,0],"id":39,"left_children":[1,3,5,7,9,11,13,-1,15,17,19,21,23,25,-1,-1,-1,-1,-1,-1,-1,-1,-1,-1,-1,-1,-1],"loss_changes":[2.764265E2,1.9141441E1,6.117157E0,3.1750488E-1,3.5015569E0,1.9458494E0,9.957886E-2,0E0,2.5561523E-1,4.4892125E0,4.0294743E0,1.142797E0,4.3528647E0,3.2154322E0,0E0,0E0,0E0,0E0,0E0,0E0,0E0,0E0,0E0,0E0,0E0,0E0,0E0],"parents":[2147483647,0,0,1,1,2,2,3,3,4,4,5,5,6,6,8,8,9,9,10,10,11,11,12,12,13,13],"right_children":[2,4,6,8,10,12,14,-1,16,18,20,22,24,26,-1,-1,-1,-1,-1,-1,-1,-1,-1,-1,-1,-1,-1],"split_conditions":[9.932025E-1,1.798621E-2,9.9896777E-1,3.3888888E0,8.291562E-1,5.944483E1,9.992792E-1,-1.622373E-2,7.647059E-1,1.1462826E2,4.1777393E-1,4.7E1,6.701631E1,3.6E1,5.32175E-2,-5.320201E-2,-1.585496E-2,-1.1822704E-2,4.108874E-2,3.7100434E-2,-3.097396E-2,3.5294145E-2,-1.0816567E-2,-5.3815115E-2,2.3568189E-2,4.86175E-2,-1.8190527E-2],"split_indices":[0,0,0,7,6,1,0,0,11,2,3,16,1,16,0,0,0,0,0,0,0,0,0,0,0,0,0],"split_type":[0,0,0,0,0,0,0,0,0,0,0,0,0,0,0,0,0,0,0,0,0,0,0,0,0,0,0],"sum_hessian":[3.318922E2,1.7537215E2,1.5652005E2,1.2801952E2,4.735263E1,1.8991737E1,1.3752832E2,1.6832657E0,1.2633626E2,1.9580782E1,2.7771847E1,1.2785308E1,6.2064285E0,9.130667E0,1.2839766E2,1.248398E2,1.4964614E0,1.5259218E1,4.321564E0,1.5305607E0,2.6241287E1,1.1736189E1,1.0491189E0,1.7188928E0,4.487536E0,7.4066935E0,1.7239732E0],"tree_param":{"num_deleted":"0","num_feature":"28","num_nodes":"27","size_leaf_vector":"1"}},{"base_weights":[-2.4089317E-3,-8.017943E-1,9.813142E-1,-1.0451304E0,-2.1540067E-1,4.1619653E-1,5.2314468E-2,-1.051342E0,-1.5480839E-2,-2.67663E-1,4.0479656E-2,6.336204E-1,-2.8031623E-1,-2.0563474E-2,-5.2924093E-2,-5.6905015E-3,-3.3250283E-2,-6.349207E-4,4.0129922E-2,3.3478763E-2,-4.4305094E-2],"categories":[],"categories_nodes":[],"categories_segments":[],"categories_sizes":[],"default_left":[0,0,0,0,0,0,0,0,0,0,0,0,0,0,0,0,0,0,0,0,0],"id":40,"left_children":[1,3,5,7,9,11,-1,13,-1,15,-1,17,19,-1,-1,-1,-1,-1,-1,-1,-1],"loss_changes":[2.5656937E2,2.5458878E1,4.935379E0,2.5450134E-1,3.1119626E0,2.7132926E0,0E0,1.3806152E-1,0E0,3.114033E0,0E0,1.4373207E0,3.2843952E0,0E0,0E0,0E0,0E0,0E0,0E0,0E0,0E0],"parents":[2147483647,0,0,1,1,2,2,3,3,4,4,5,5,7,7,9,9,11,11,12,12],"right_children":[2,4,6,8,10,12,-1,14,-1,16,-1,18,20,-1,-1,-1,-1,-1,-1,-1,-1],"split_conditions":[9.967269E-1,1.798621E-2,9.9911696E-1,7.647059E-1,5.4803147E0,2.3E1,5.2314468E-2,3.3888888E0,-1.5480839E-2,2.4E1,4.0479656E-2,1.4E1,3.8235295E0,-2.0563474E-2,-5.2924093E-2,-5.6905015E-3,-3.3250283E-2,-6.349207E-4,4.0129922E-2,3.3478763E-2,-4.4305094E-2],"split_indices":[0,0,0,11,7,16,0,7,0,16,0,16,7,0,0,0,0,0,0,0,0],"split_type":[0,0,0,0,0,0,0,0,0,0,0,0,0,0,0,0,0,0,0,0,0],"sum_hessian":[3.242684E2,1.7899767E2,1.4527072E2,1.2594986E2,5.30478E1,1.5743951E1,1.2952678E2,1.2446929E2,1.4805685E0,5.117724E1,1.8705599E0,1.2067307E1,3.676643E0,2.019583E0,1.22449715E2,3.78197E1,1.335754E1,2.6927483E0,9.374559E0,1.3906921E0,2.2859507E0],"tree_param":{"num_deleted":"0","num_feature":"28","num_nodes":"21","size_leaf_vector":"1"}},{"base_weights":[7.794654E-3,6.98663E-1,-3.570985E-1,9.7743386E-1,3.589953E-1,-1.1911938E-2,-7.0505935E-1,1.0006772E0,4.2906967E-1,-5.551852E-1,4.7748798E-1,3.912593E-1,-2.1568553E-1,-8.0147517E-1,4.6417534E-1,9.765624E-3,5.0829977E-2,3.5368938E-2,-4.6841577E-3,5.8917194E-3,-3.705493E-2,1.7846761E-2,4.1515246E-2,-7.535621E-3,2.7032925E-2,-1.4603279E-2,3.9427925E-2,-2.7711272E-2,-5.1551517E-2,3.7582763E-2,-2.8506923E-2],"categories":[],"categories_nodes":[],"categories_segments":[],"categories_sizes":[],"default_left":[0,0,0,0,0,0,0,0,0,0,0,0,0,0,0,0,0,0,0,0,0,0,0,0,0,0,0,0,0,0,0],"id":41,"left_children":[1,3,5,7,9,11,13,15,17,19,21,23,25,27,29,-1,-1,-1,-1,-1,-1,-1,-1,-1,-1,-1,-1,-1,-1,-1,-1],"loss_changes":[7.89223E1,9.894409E0,2.459995E1,3.2069016E-1,5.7195053E0,8.61764E0,1.1872162E1,5.157356E-1,6.690957E-1,8.6810327E-1,1.6224203E0,2.9338403E0,5.5719604E0,4.7982903E0,2.9275608E0,0E0,0E0,0E0,0E0,0E0,0E0,0E0,0E0,0E0,0E0,0E0,0E0,0E0,0E0,0E0,0E0],"parents":[2147483647,0,0,1,1,2,2,3,3,4,4,5,5,6,6,7,7,8,8,9,9,10,10,11,11,12,12,13,13,14,14],"right_children":[2,4,6,8,10,12,14,16,18,20,22,24,26,28,30,-1,-1,-1,-1,-1,-1,-1,-1,-1,-1,-1,-1,-1,-1,-1,-1],"split_conditions":[2.5357666E1,1.621956E1,2.5E1,4.4444446E-2,6.1538464E-1,4.9712124E1,5.0277777E0,6E0,4.0869565E0,1.25E2,4.3645835E0,1.5E1,5.625E0,5.1E1,7.616314E1,9.765624E-3,5.0829977E-2,3.5368938E-2,-4.6841577E-3,5.8917194E-3,-3.705493E-2,1.7846761E-2,4.1515246E-2,-7.535621E-3,2.7032925E-2,-1.4603279E-2,3.9427925E-2,-2.7711272E-2,-5.1551517E-2,3.7582763E-2,-2.8506923E-2],"split_indices":[1,1,16,12,4,1,7,5,7,16,7,16,7,16,1,0,0,0,0,0,0,0,0,0,0,0,0,0,0,0,0],"split_type":[0,0,0,0,0,0,0,0,0,0,0,0,0,0,0,0,0,0,0,0,0,0,0,0,0,0,0,0,0,0,0],"sum_hessian":[3.1107837E2,1.0719902E2,2.0387935E2,5.7846134E1,4.9352882E1,1.02866875E2,1.01012474E2,5.470262E1,3.1435099E0,5.240054E0,4.411283E1,3.4227272E1,6.86396E1,9.360803E1,7.404442E0,1.3177204E0,5.3384903E1,1.8208988E0,1.3226111E0,1.2134537E0,4.026601E0,3.4378006E1,9.734824E0,7.394313E0,2.6832958E1,6.44471E1,4.1925E0,4.6710907E1,4.6897125E1,6.007878E0,1.3965638E0],"tree_param":{"num_deleted":"0","num_feature":"28","num_nodes":"31","size_leaf_vector":"1"}},{"base_weights":[8.548586E-3,-9.0625006E-1,8.810272E-1,-1.0413172E0,-4.821911E-1,3.0530083E-1,5.2366395E-2,-5.243087E-2,-9.52839E-3,-5.471095E-1,3.498706E-2,-2.0002182E-1,4.026947E-1,1.95391E-2,-3.1016422E-2,3.2169115E-2,-4.49912E-2,2.8841425E-2,3.646743E-3],"categories":[],"categories_nodes":[],"categories_segments":[],"categories_sizes":[],"default_left":[0,0,0,0,0,0,0,0,0,0,0,0,0,0,0,0,0,0,0],"id":42,"left_children":[1,3,5,7,9,11,-1,-1,-1,13,-1,15,17,-1,-1,-1,-1,-1,-1],"loss_changes":[2.4710054E2,8.154457E0,1.4851585E1,5.0668335E-1,3.3271017E0,1.8977973E0,0E0,0E0,0E0,2.7788277E0,0E0,4.494904E0,1.7546539E0,0E0,0E0,0E0,0E0,0E0,0E0],"parents":[2147483647,0,0,1,1,2,2,3,3,4,4,5,5,9,9,11,11,12,12],"right_children":[2,4,6,8,10,12,-1,-1,-1,14,-1,16,18,-1,-1,-1,-1,-1,-1],"split_conditions":[9.124362E-1,8.315778E-3,9.9911696E-1,4.0449437E-1,7.2463766E-2,1.7142856E-2,5.2366395E-2,-5.243087E-2,-9.52839E-3,2.341977E1,3.498706E-2,1.2048192E-2,1.9E1,1.95391E-2,-3.1016422E-2,3.2169115E-2,-4.49912E-2,2.8841425E-2,3.646743E-3],"split_indices":[0,0,0,11,8,8,0,0,0,2,0,8,16,0,0,0,0,0,0],"split_type":[0,0,0,0,0,0,0,0,0,0,0,0,0,0,0,0,0,0,0],"sum_hessian":[3.0759424E2,1.5013654E2,1.574577E2,1.1276433E2,3.7372208E1,3.5924465E1,1.2153323E2,1.1157436E2,1.1899697E0,3.593553E1,1.4366766E0,5.634814E0,3.0289654E1,2.2881753E0,3.3647358E1,2.5917952E0,3.0430183E0,1.9331944E1,1.0957709E1],"tree_param":{"num_deleted":"0","num_feature":"28","num_nodes":"19","size_leaf_vector":"1"}},{"base_weights":[-8.020459E-3,-8.620361E-1,8.991788E-1,-1.04437E0,-3.961606E-1,2.903865E-1,1.0339093E0,-1.0520636E0,-9.335746E-3,-8.17303E-1,-2.4956132E-1,5.152692E-2,7.1256846E-1,6.363192E-1,5.243885E-2,-1.2370033E-2,-5.303674E-2,5.9860297E-3,-4.65764E-2,3.2549992E-2,-1.950466E-2,-3.8726486E-2,1.4168461E-2,4.222771E-2,-6.0555297E-3,-1.4519401E-2,4.4928055E-2],"categories":[],"categories_nodes":[],"categories_segments":[],"categories_sizes":[],"default_left":[0,0,0,0,0,0,0,0,0,0,0,0,0,0,0,0,0,0,0,0,0,0,0,0,0,0,0],"id":43,"left_children":[1,3,5,7,9,11,13,15,-1,17,19,21,23,25,-1,-1,-1,-1,-1,-1,-1,-1,-1,-1,-1,-1,-1],"loss_changes":[2.2906244E2,1.2522247E1,1.1459206E1,5.217285E-1,2.5401974E0,2.7232969E0,2.4238586E-2,4.8871613E-1,0E0,1.29288E0,4.608823E0,3.7735875E0,1.1819072E0,1.9037826E0,0E0,0E0,0E0,0E0,0E0,0E0,0E0,0E0,0E0,0E0,0E0,0E0,0E0],"parents":[2147483647,0,0,1,1,2,2,3,3,4,4,5,5,6,6,7,7,9,9,10,10,11,11,12,12,13,13],"right_children":[2,4,6,8,10,12,14,16,-1,18,20,22,24,26,-1,-1,-1,-1,-1,-1,-1,-1,-1,-1,-1,-1,-1],"split_conditions":[9.8087597E-1,8.315778E-3,9.9911696E-1,7.647059E-1,8.358209E-1,3.717472E-2,9.992792E-1,3.3888888E0,-9.335746E-3,3.3076923E0,2.3705145E1,8.117647E0,9.1836736E-2,1.889587E1,5.243885E-2,-1.2370033E-2,-5.303674E-2,5.9860297E-3,-4.65764E-2,3.2549992E-2,-1.950466E-2,-3.8726486E-2,1.4168461E-2,4.222771E-2,-6.0555297E-3,-1.4519401E-2,4.4928055E-2],"split_indices":[0,0,0,11,4,8,0,7,0,7,1,5,14,1,0,0,0,0,0,0,0,0,0,0,0,0,0],"split_type":[0,0,0,0,0,0,0,0,0,0,0,0,0,0,0,0,0,0,0,0,0,0,0,0,0,0,0],"sum_hessian":[2.936546E2,1.512867E2,1.4236789E2,1.0783901E2,4.344769E1,2.6369623E1,1.1599827E2,1.06655594E2,1.1834179E0,1.003748E1,3.3410206E1,1.755788E1,8.811744E0,5.7601104E0,1.1023816E2,1.4519159E0,1.0520368E2,1.0854095E0,8.952071E0,4.019556E0,2.939065E1,3.3348854E0,1.4222995E1,7.596105E0,1.2156386E0,1.2468116E0,4.5132985E0],"tree_param":{"num_deleted":"0","num_feature":"28","num_nodes":"27","size_leaf_vector":"1"}},{"base_weights":[-4.490631E-3,-8.039626E-1,9.291832E-1,-1.0383247E0,-3.1281632E-1,3.3487454E-1,1.0291392E0,-1.2284765E-2,-5.2361727E-2,-5.93375E-1,-1.9602764E-2,7.380217E-2,8.1247914E-1,6.269696E-1,5.2230727E-2,-3.7195604E-2,3.0252924E-2,1.4302609E-2,-2.3340203E-2,-5.4955777E-2,1.4048028E-2,5.2191198E-2,-9.9912435E-3,-9.17509E-3,4.422425E-2],"categories":[],"categories_nodes":[],"categories_segments":[],"categories_sizes":[],"default_left":[0,0,0,0,0,0,0,0,0,0,0,0,0,0,0,0,0,0,0,0,0,0,0,0,0],"id":44,"left_children":[1,3,5,7,9,11,13,-1,-1,15,17,19,21,23,-1,-1,-1,-1,-1,-1,-1,-1,-1,-1,-1],"loss_changes":[2.127488E2,1.7348534E1,7.4656067E0,4.737091E-1,4.1862235E0,2.4851148E0,4.2518616E-2,0E0,0E0,5.148531E0,3.685547E0,3.782744E0,1.8746467E0,1.5509727E0,0E0,0E0,0E0,0E0,0E0,0E0,0E0,0E0,0E0,0E0,0E0],"parents":[2147483647,0,0,1,1,2,2,3,3,4,4,5,5,6,6,9,9,10,10,11,11,12,12,13,13],"right_children":[2,4,6,8,10,12,14,-1,-1,16,18,20,22,24,-1,-1,-1,-1,-1,-1,-1,-1,-1,-1,-1],"split_conditions":[9.932025E-1,8.315778E-3,9.9911696E-1,3.3888888E0,3.142857E-2,3.717472E-2,9.992792E-1,-1.2284765E-2,-5.2361727E-2,4.889423E0,5.6769344E1,1.3E1,1.9E1,1.889587E1,5.2230727E-2,-3.7195604E-2,3.0252924E-2,1.4302609E-2,-2.3340203E-2,-5.4955777E-2,1.4048028E-2,5.2191198E-2,-9.9912435E-3,-9.17509E-3,4.422425E-2],"split_indices":[0,0,0,7,8,8,0,0,0,7,3,16,16,1,0,0,0,0,0,0,0,0,0,0,0],"split_type":[0,0,0,0,0,0,0,0,0,0,0,0,0,0,0,0,0,0,0,0,0,0,0,0,0],"sum_hessian":[2.8301483E2,1.5253954E2,1.304753E2,1.02510254E2,5.0029285E1,1.9411343E1,1.1106396E2,1.4571431E0,1.01053116E2,2.5043215E1,2.4986069E1,1.3297225E1,6.114118E0,5.653615E0,1.0541035E2,2.2585482E1,2.4577336E0,1.5055931E1,9.930138E0,1.3496897E0,1.19475355E1,4.951419E0,1.1626991E0,1.4325144E0,4.221101E0],"tree_param":{"num_deleted":"0","num_feature":"28","num_nodes":"25","size_leaf_vector":"1"}},{"base_weights":[-1.4869717E-4,-8.6743045E-1,8.2368755E-1,-1.0325551E0,-3.8947305E-1,2.0960823E-1,1.0236714E0,-7.851909E-3,-1.0419552E0,-6.7545456E-1,-1.3134715E-1,3.9812464E-1,-1.7197266E-1,5.892925E-1,5.2008957E-2,-5.2535195E-2,-8.185853E-3,-4.3966305E-2,-1.3112925E-2,5.3111645E-3,-3.28183E-2,3.2607537E-2,4.210862E-3,-4.0514376E-2,1.6727267E-2,4.2923857E-2,-1.294292E-2],"categories":[],"categories_nodes":[],"categories_segments":[],"categories_sizes":[],"default_left":[0,0,0,0,0,0,0,0,0,0,0,0,0,0,0,0,0,0,0,0,0,0,0,0,0,0,0],"id":45,"left_children":[1,3,5,7,9,11,13,-1,15,17,19,21,23,25,-1,-1,-1,-1,-1,-1,-1,-1,-1,-1,-1,-1,-1],"loss_changes":[1.9577887E2,1.01328125E1,1.704264E1,6.4788055E-1,2.55996E0,2.642192E0,1.4528656E-1,0E0,5.761795E-1,1.1829567E0,2.5767925E0,1.8787384E0,4.322086E0,1.6328311E0,0E0,0E0,0E0,0E0,0E0,0E0,0E0,0E0,0E0,0E0,0E0,0E0,0E0],"parents":[2147483647,0,0,1,1,2,2,3,3,4,4,5,5,6,6,8,8,9,9,10,10,11,11,12,12,13,13],"right_children":[2,4,6,8,10,12,14,-1,16,18,20,22,24,26,-1,-1,-1,-1,-1,-1,-1,-1,-1,-1,-1,-1,-1],"split_conditions":[9.124362E-1,8.315778E-3,9.9911696E-1,3.3888888E0,9.130435E-1,5.883804E1,9.992792E-1,-7.851909E-3,7.647059E-1,3.2485876E-2,5.6769344E1,3.9215686E0,9.418848E1,3.6E1,5.2008957E-2,-5.2535195E-2,-8.185853E-3,-4.3966305E-2,-1.3112925E-2,5.3111645E-3,-3.28183E-2,3.2607537E-2,4.210862E-3,-4.0514376E-2,1.6727267E-2,4.2923857E-2,-1.294292E-2],"split_indices":[0,0,0,7,4,1,0,0,11,8,3,7,2,16,0,0,0,0,0,0,0,0,0,0,0,0,0],"split_type":[0,0,0,0,0,0,0,0,0,0,0,0,0,0,0,0,0,0,0,0,0,0,0,0,0,0,0],"sum_hessian":[2.720089E2,1.3248468E2,1.3952425E2,9.760407E1,3.4880604E1,3.4778854E1,1.0474539E2,1.2248887E0,9.637918E1,1.5780448E1,1.9100155E1,2.3249369E1,1.1529486E1,5.178494E0,9.95669E1,9.523413E1,1.1450547E0,9.811386E0,5.9690614E0,1.3699035E1,5.401121E0,1.2254789E1,1.0994578E1,4.8357472E0,6.693738E0,3.921667E0,1.2568268E0],"tree_param":{"num_deleted":"0","num_feature":"28","num_nodes":"27","size_leaf_vector":"1"}},{"base_weights":[8.391542E-3,-7.5883543E-1,9.1378415E-1,-1.0279324E0,-2.4250007E-1,3.1471363E-1,5.1484924E-2,-1.0365733E0,-1.0380037E-2,-8.152184E-2,-6.469598E-1,-4.741773E-1,4.6860474E-1,-1.4788344E-2,-5.2312404E-2,4.3594167E-3,-2.8237736E-2,1.560804E-3,-4.8989862E-2,1.9690339E-2,-6.1509427E-2,3.1591486E-2,-2.2524118E-3],"categories":[],"categories_nodes":[],"categories_segments":[],"categories_sizes":[],"default_left":[0,0,0,0,0,0,0,0,0,0,0,0,0,0,0,0,0,0,0,0,0,0,0],"id":46,"left_children":[1,3,5,7,9,11,-1,13,-1,15,17,19,21,-1,-1,-1,-1,-1,-1,-1,-1,-1,-1],"loss_changes":[1.8736969E2,2.0038605E1,8.26738E0,4.6302795E-1,3.2896254E0,2.8321679E0,0E0,3.673706E-1,0E0,3.1361616E0,3.2969356E0,3.1133685E0,1.5788574E0,0E0,0E0,0E0,0E0,0E0,0E0,0E0,0E0,0E0,0E0],"parents":[2147483647,0,0,1,1,2,2,3,3,4,4,5,5,7,7,9,9,10,10,11,11,12,12],"right_children":[2,4,6,8,10,12,-1,14,-1,16,18,20,22,-1,-1,-1,-1,-1,-1,-1,-1,-1,-1],"split_conditions":[9.932025E-1,8.315778E-3,9.9911696E-1,7.647059E-1,2.4E1,3.483871E0,5.1484924E-2,3.3888888E0,-1.0380037E-2,6.5439285E1,2.9411765E-2,8.780488E-1,2.3E1,-1.4788344E-2,-5.2312404E-2,4.3594167E-3,-2.8237736E-2,1.560804E-3,-4.8989862E-2,1.9690339E-2,-6.1509427E-2,3.1591486E-2,-2.2524118E-3],"split_indices":[0,0,0,11,16,7,0,7,0,3,14,4,16,0,0,0,0,0,0,0,0,0,0],"split_type":[0,0,0,0,0,0,0,0,0,0,0,0,0,0,0,0,0,0,0,0,0,0,0],"sum_hessian":[2.6773752E2,1.4501451E2,1.2272299E2,9.467974E1,5.0334774E1,2.0498314E1,1.0222468E2,9.343198E1,1.2477688E0,3.6864117E1,1.3470657E1,3.0062323E0,1.749208E1,1.6114702E0,9.18205E1,2.7931885E1,8.932232E0,4.733034E0,8.737623E0,1.6225107E0,1.3837216E0,1.30993805E1,4.3926997E0],"tree_param":{"num_deleted":"0","num_feature":"28","num_nodes":"23","size_leaf_vector":"1"}},{"base_weights":[1.1579288E-2,-7.300522E-1,9.069524E-1,-1.0120187E0,-1.9584969E-1,4.2857018E-1,5.1614504E-2,-9.438388E-3,-1.0218368E0,-2.9864838E-2,-6.1395365E-1,1.9385803E-1,8.614209E-1,-5.206984E-2,-2.2595486E-2,6.7299576E-3,-2.592195E-2,2.4692517E-2,-3.7185382E-2,-7.6868036E-3,3.762583E-2,5.171872E-2,-3.9601955E-3],"categories":[],"categories_nodes":[],"categories_segments":[],"categories_sizes":[],"default_left":[0,0,0,0,0,0,0,0,0,0,0,0,0,0,0,0,0,0,0,0,0,0,0],"id":47,"left_children":[1,3,5,7,9,11,-1,-1,13,15,17,19,21,-1,-1,-1,-1,-1,-1,-1,-1,-1,-1],"loss_changes":[1.7131787E2,2.1058449E1,6.5654297E0,5.517502E-1,3.4511805E0,2.4718957E0,0E0,0E0,5.4177094E-1,3.0298052E0,2.4020882E0,3.6367524E0,1.520402E0,0E0,0E0,0E0,0E0,0E0,0E0,0E0,0E0,0E0,0E0],"parents":[2147483647,0,0,1,1,2,2,3,3,4,4,5,5,8,8,9,9,10,10,11,11,12,12],"right_children":[2,4,6,8,10,12,-1,-1,14,16,18,20,22,-1,-1,-1,-1,-1,-1,-1,-1,-1,-1],"split_conditions":[9.932025E-1,8.315778E-3,9.992792E-1,3.3888888E0,2.4E1,3.717472E-2,5.1614504E-2,-9.438388E-3,5.8333334E-2,6.5439285E1,1.5151516E-2,1.2055555E1,9.1836736E-2,-5.206984E-2,-2.2595486E-2,6.7299576E-3,-2.592195E-2,2.4692517E-2,-3.7185382E-2,-7.6868036E-3,3.762583E-2,5.171872E-2,-3.9601955E-3],"split_indices":[0,0,0,7,16,8,0,0,11,3,8,5,14,0,0,0,0,0,0,0,0,0,0],"split_type":[0,0,0,0,0,0,0,0,0,0,0,0,0,0,0,0,0,0,0,0,0,0,0],"sum_hessian":[2.559974E2,1.4012088E2,1.1587653E2,9.112708E1,4.8993793E1,2.4974516E1,9.0902016E1,1.3123474E0,8.9814735E1,3.583782E1,1.3155975E1,1.7132387E1,7.842128E0,8.603475E1,3.779982E0,2.7354307E1,8.48351E0,1.0851566E0,1.2070819E1,1.1008054E1,6.1243343E0,6.539954E0,1.3021736E0],"tree_param":{"num_deleted":"0","num_feature":"28","num_nodes":"23","size_leaf_vector":"1"}},{"base_weights":[1.33332005E-2,-8.1225795E-1,8.2028204E-1,-1.0175258E0,-3.001087E-1,1.9631338E-1,9.8645204E-1,-1.0270779E0,-7.269823E-3,-8.950421E-1,-1.5436868E-1,5.546517E-1,-3.356724E-2,5.977855E-1,5.1444083E-2,-1.3219917E-2,-5.187831E-2,-5.01691E-2,-9.822565E-3,-1.9191539E-2,1.0865615E-2,5.129362E-2,-6.387681E-3,-4.7217004E-2,9.331591E-3,4.7603726E-2,-5.384316E-3],"categories":[],"categories_nodes":[],"categories_segments":[],"categories_sizes":[],"default_left":[0,0,0,0,0,0,0,0,0,0,0,0,0,0,0,0,0,0,0,0,0,0,0,0,0,0,0],"id":48,"left_children":[1,3,5,7,9,11,13,15,-1,17,19,21,23,25,-1,-1,-1,-1,-1,-1,-1,-1,-1,-1,-1,-1,-1],"loss_changes":[1.6627122E2,1.2664459E1,1.289196E1,5.808945E-1,3.045456E0,2.3078299E0,1.0244141E0,4.1791534E-1,0E0,3.3392143E-1,2.701816E0,3.6417813E0,3.7605884E0,3.144662E0,0E0,0E0,0E0,0E0,0E0,0E0,0E0,0E0,0E0,0E0,0E0,0E0,0E0],"parents":[2147483647,0,0,1,1,2,2,3,3,4,4,5,5,6,6,7,7,9,9,10,10,11,11,12,12,13,13],"right_children":[2,4,6,8,10,12,14,16,-1,18,20,22,24,26,-1,-1,-1,-1,-1,-1,-1,-1,-1,-1,-1,-1,-1],"split_conditions":[9.124362E-1,8.315778E-3,9.984988E-1,7.647059E-1,8.110236E-1,8.717949E-1,9.992792E-1,3.3888888E0,-7.269823E-3,4.2777777E0,1.0833333E1,3.9166667E0,1.9217571E-2,2.3E1,5.1444083E-2,-1.3219917E-2,-5.187831E-2,-5.01691E-2,-9.822565E-3,-1.9191539E-2,1.0865615E-2,5.129362E-2,-6.387681E-3,-4.7217004E-2,9.331591E-3,4.7603726E-2,-5.384316E-3],"split_indices":[0,0,0,11,4,4,0,7,0,7,5,7,8,16,0,0,0,0,0,0,0,0,0,0,0,0,0],"split_type":[0,0,0,0,0,0,0,0,0,0,0,0,0,0,0,0,0,0,0,0,0,0,0,0,0,0,0],"sum_hessian":[2.4757774E2,1.2237205E2,1.25205696E2,8.665444E1,3.571761E1,2.6790121E1,9.841557E1,8.553988E1,1.1145605E0,6.016394E0,2.9701214E1,9.9176655E0,1.6872456E1,1.1171425E1,8.724415E1,1.5159085E0,8.402397E1,4.830907E0,1.1854873E0,1.8343763E1,1.1357451E1,5.5688763E0,4.348789E0,2.6447675E0,1.4227687E1,7.2040052E0,3.9674196E0],"tree_param":{"num_deleted":"0","num_feature":"28","num_nodes":"27","size_leaf_vector":"1"}},{"base_weights":[8.650188E-3,-8.108831E-1,7.9606074E-1,-1.0001861E0,-3.356154E-1,1.6207701E-1,9.805691E-1,-3.2849342E-3,-1.0111341E0,-8.302273E-1,-5.299667E-2,-3.5595146E-1,2.8135827E-1,5.8940876E-1,5.124969E-2,-5.1641345E-2,-1.9128641E-2,-4.724601E-2,-1.6444933E-3,8.291422E-3,-2.8775087E-2,-4.6614263E-2,2.2865793E-2,-1.17596565E-2,2.3324272E-2,3.9609365E-2,-2.3604548E-2],"categories":[],"categories_nodes":[],"categories_segments":[],"categories_sizes":[],"default_left":[0,0,0,0,0,0,0,0,0,0,0,0,0,0,0,0,0,0,0,0,0,0,0,0,0,0,0],"id":49,"left_children":[1,3,5,7,9,11,13,-1,15,17,19,21,23,25,-1,-1,-1,-1,-1,-1,-1,-1,-1,-1,-1,-1,-1],"loss_changes":[1.5525398E2,1.0271278E1,1.4193161E1,7.909775E-1,4.8607435E0,1.8832026E0,1.043869E0,0E0,7.334213E-1,1.1294422E0,2.7705808E0,3.1647143E0,2.4061024E0,2.962453E0,0E0,0E0,0E0,0E0,0E0,0E0,0E0,0E0,0E0,0E0,0E0,0E0,0E0],"parents":[2147483647,0,0,1,1,2,2,3,3,4,4,5,5,6,6,8,8,9,9,10,10,11,11,12,12,13,13],"right_children":[2,4,6,8,10,12,14,-1,16,18,20,22,24,26,-1,-1,-1,-1,-1,-1,-1,-1,-1,-1,-1,-1,-1],"split_conditions":[9.124362E-1,8.315778E-3,9.984988E-1,3.4146342E0,8.8461536E-1,1.7142856E-2,9.992792E-1,-3.2849342E-3,5.8333334E-2,4.2857144E-2,5.7263622E1,1.7333334E1,6.8E0,3.6E1,5.124969E-2,-5.1641345E-2,-1.9128641E-2,-4.724601E-2,-1.6444933E-3,8.291422E-3,-2.8775087E-2,-4.6614263E-2,2.2865793E-2,-1.17596565E-2,2.3324272E-2,3.9609365E-2,-2.3604548E-2],"split_indices":[0,0,0,7,4,8,0,0,11,8,3,5,5,16,0,0,0,0,0,0,0,0,0,0,0,0,0],"split_type":[0,0,0,0,0,0,0,0,0,0,0,0,0,0,0,0,0,0,0,0,0,0,0,0,0,0,0],"sum_hessian":[2.3858823E2,1.1689482E2,1.21693405E2,8.280746E1,3.408736E1,2.7856148E1,9.383726E1,1.0399647E0,8.1767494E1,1.1690375E1,2.2396984E1,4.8423014E0,2.3013845E1,1.1025439E1,8.281181E1,7.8417984E1,3.349514E0,1.0058429E1,1.6319468E0,1.6266996E1,6.129989E0,2.7483194E0,2.0939822E0,6.0004992E0,1.7013348E1,9.4700775E0,1.5553619E0],"tree_param":{"num_deleted":"0","num_feature":"28","num_nodes":"27","size_leaf_vector":"1"}},{"base_weights":[-1.2804101E-2,-6.8951833E-1,9.0470225E-1,-9.882263E-1,-1.6497673E-1,3.652499E-1,5.107388E-2,-1.0301455E0,-6.4175063E-1,-4.2066652E-1,8.030096E-2,7.9701975E-2,8.5141236E-1,-5.212301E-2,-1.871139E-2,5.3724525E-3,-3.8350593E-2,-2.9199058E-2,3.8226303E-2,-3.6722742E-2,9.281577E-3,2.5230428E-2,-3.592108E-2,4.8024382E-2,1.0904575E-2],"categories":[],"categories_nodes":[],"categories_segments":[],"categories_sizes":[],"default_left":[0,0,0,0,0,0,0,0,0,0,0,0,0,0,0,0,0,0,0,0,0,0,0,0,0],"id":50,"left_children":[1,3,5,7,9,11,-1,13,15,17,19,21,23,-1,-1,-1,-1,-1,-1,-1,-1,-1,-1,-1,-1],"loss_changes":[1.4416576E2,2.0773281E1,5.8361053E0,5.7253265E-1,3.1496696E0,2.583171E0,0E0,2.0856476E-1,1.191627E0,5.1858916E0,2.3845878E0,4.8165317E0,2.7151394E-1,0E0,0E0,0E0,0E0,0E0,0E0,0E0,0E0,0E0,0E0,0E0,0E0],"parents":[2147483647,0,0,1,1,2,2,3,3,4,4,5,5,7,7,8,8,9,9,10,10,11,11,12,12],"right_children":[2,4,6,8,10,12,-1,14,16,18,20,22,24,-1,-1,-1,-1,-1,-1,-1,-1,-1,-1,-1,-1],"split_conditions":[9.967269E-1,1.798621E-2,9.992792E-1,1E0,2.9508196E-2,3.4246575E-2,5.107388E-2,6.153846E-2,4.869286E1,4.889423E0,7.627119E-1,2.7654868E-2,6.7567565E-2,-5.212301E-2,-1.871139E-2,5.3724525E-3,-3.8350593E-2,-2.9199058E-2,3.8226303E-2,-3.6722742E-2,9.281577E-3,2.5230428E-2,-3.592108E-2,4.8024382E-2,1.0904575E-2],"split_indices":[0,0,0,4,8,8,0,8,1,7,4,8,14,0,0,0,0,0,0,0,0,0,0,0,0],"split_type":[0,0,0,0,0,0,0,0,0,0,0,0,0,0,0,0,0,0,0,0,0,0,0,0,0],"sum_hessian":[2.3018755E2,1.3262062E2,9.7566925E1,8.393731E1,4.8683315E1,1.8096521E1,7.9470406E1,7.311777E1,1.0819543E1,2.3485641E1,2.5197674E1,1.2133715E1,5.962807E0,7.119183E1,1.92593E0,1.5702024E0,9.24934E0,2.1087185E1,2.3984578E0,2.200838E0,2.2996836E1,8.158195E0,3.9755197E0,4.646042E0,1.3167652E0],"tree_param":{"num_deleted":"0","num_feature":"28","num_nodes":"25","size_leaf_vector":"1"}},{"base_weights":[-1.2914778E-2,-6.5120476E-1,9.4277126E-1,-1.0154004E0,-1.5928754E-1,4.533324E-1,5.089077E-2,-5.133694E-2,-4.8063435E-3,-3.2871702E-1,2.4575998E-1,6.8236923E-1,-5.158148E-2,-4.0048268E-2,-7.271144E-3,2.7528036E-2,-2.8427348E-2,-2.3789413E-3,4.0951904E-2,3.221103E-2,-2.4178661E-2],"categories":[],"categories_nodes":[],"categories_segments":[],"categories_sizes":[],"default_left":[0,0,0,0,0,0,0,0,0,0,0,0,0,0,0,0,0,0,0,0,0],"id":51,"left_children":[1,3,5,7,9,11,-1,-1,-1,13,15,17,19,-1,-1,-1,-1,-1,-1,-1,-1],"loss_changes":[1.3552446E2,2.3700188E1,2.8064575E0,6.9705963E-1,4.05064E0,1.6115565E0,0E0,0E0,0E0,3.451017E0,4.68952E0,9.814811E-1,1.8695762E0,0E0,0E0,0E0,0E0,0E0,0E0,0E0,0E0],"parents":[2147483647,0,0,1,1,2,2,3,3,4,4,5,5,9,9,10,10,11,11,12,12],"right_children":[2,4,6,8,10,12,-1,-1,-1,14,16,18,20,-1,-1,-1,-1,-1,-1,-1,-1],"split_conditions":[9.980732E-1,8.315778E-3,9.992792E-1,7.647059E-1,3.9274924E-2,2.3E1,5.089077E-2,-5.133694E-2,-4.8063435E-3,8.117647E0,4.53211E0,9.984988E-1,3.8965516E0,-4.0048268E-2,-7.271144E-3,2.7528036E-2,-2.8427348E-2,-2.3789413E-3,4.0951904E-2,3.221103E-2,-2.4178661E-2],"split_indices":[0,0,0,11,8,16,0,0,0,5,7,0,7,0,0,0,0,0,0,0,0],"split_type":[0,0,0,0,0,0,0,0,0,0,0,0,0,0,0,0,0,0,0,0,0],"sum_hessian":[2.2016304E2,1.3219221E2,8.7970825E1,7.534538E1,5.6846836E1,1.26311455E1,7.5339676E1,7.431191E1,1.0334712E0,4.021397E1,1.6632866E1,8.447686E0,4.1834598E0,1.030187E1,2.99121E1,1.2338406E1,4.2944603E0,1.4350351E0,7.0126505E0,1.414258E0,2.769202E0],"tree_param":{"num_deleted":"0","num_feature":"28","num_nodes":"21","size_leaf_vector":"1"}},{"base_weights":[7.1217646E-3,-8.4892595E-1,7.040013E-1,-1.5732875E-1,-9.3381214E-1,1.3755459E-1,5.025835E-2,4.9876386E-1,-7.906645E-1,-9.890304E-1,-1.9348513E-1,-3.2242608E-1,2.8274468E-1,-3.406384E-2,4.6699E-2,-4.5916308E-2,-6.2627555E-3,-5.0499655E-2,1.8735463E-3,2.8589904E-2,-4.2029493E-2,3.5342697E-2,-2.9661087E-2,8.554436E-5,2.4778407E-2],"categories":[],"categories_nodes":[],"categories_segments":[],"categories_sizes":[],"default_left":[0,0,0,0,0,0,0,0,0,0,0,0,0,0,0,0,0,0,0,0,0,0,0,0,0],"id":52,"left_children":[1,3,5,7,9,11,-1,13,15,17,19,21,23,-1,-1,-1,-1,-1,-1,-1,-1,-1,-1,-1,-1],"loss_changes":[1.2977002E2,5.5841064E0,2.0317223E1,5.3285913E0,3.3547897E0,2.9482605E0,0E0,3.9466486E0,4.3109417E-1,1.7696762E0,4.0780125E0,3.4103127E0,1.9758768E0,0E0,0E0,0E0,0E0,0E0,0E0,0E0,0E0,0E0,0E0,0E0,0E0],"parents":[2147483647,0,0,1,1,2,2,3,3,4,4,5,5,7,7,8,8,9,9,10,10,11,11,12,12],"right_children":[2,4,6,8,10,12,-1,14,16,18,20,22,24,-1,-1,-1,-1,-1,-1,-1,-1,-1,-1,-1,-1],"split_conditions":[5.9286547E-1,6.6666665E0,9.9911696E-1,7.616314E1,4E-2,6.8E0,5.025835E-2,3.3183858E-2,1.9E1,4.7317037E-1,2.58602E0,3.837838E0,3.234177E1,-3.406384E-2,4.6699E-2,-4.5916308E-2,-6.2627555E-3,-5.0499655E-2,1.8735463E-3,2.8589904E-2,-4.2029493E-2,3.5342697E-2,-2.9661087E-2,8.554436E-5,2.4778407E-2],"split_indices":[0,5,0,1,11,5,0,8,16,0,6,7,1,0,0,0,0,0,0,0,0,0,0,0,0],"split_type":[0,0,0,0,0,0,0,0,0,0,0,0,0,0,0,0,0,0,0,0,0,0,0,0,0],"sum_hessian":[2.1552794E2,9.6620735E1,1.1890721E2,1.087465E1,8.5746086E1,4.1780743E1,7.7126465E1,5.4457283E0,5.428921E0,7.948189E1,6.264199E0,9.730995E0,3.2049747E1,1.3149662E0,4.130762E0,4.236113E0,1.192808E0,7.790699E1,1.574894E0,2.9233463E0,3.3408523E0,1.6914809E0,8.039515E0,1.4245965E1,1.7803783E1],"tree_param":{"num_deleted":"0","num_feature":"28","num_nodes":"25","size_leaf_vector":"1"}},{"base_weights":[-2.1130193E-3,-6.397411E-1,8.992834E-1,-9.7970545E-1,-1.7701176E-1,4.2666143E-1,5.0552756E-2,-9.465873E-3,-9.9204355E-1,-2.2918834E-1,7.046687E-1,1.6038333E-1,8.452455E-1,-5.0894357E-2,-2.2768734E-2,-8.34707E-3,-4.6197575E-2,5.7463598E-2,-4.079975E-3,2.7309498E-2,-2.618133E-2,4.8086803E-2,4.5077833E-3],"categories":[],"categories_nodes":[],"categories_segments":[],"categories_sizes":[],"default_left":[0,0,0,0,0,0,0,0,0,0,0,0,0,0,0,0,0,0,0,0,0,0,0],"id":53,"left_children":[1,3,5,7,9,11,-1,-1,13,15,17,19,21,-1,-1,-1,-1,-1,-1,-1,-1,-1,-1],"loss_changes":[1.2132281E2,1.9274948E1,4.188507E0,5.05043E-1,2.6264071E0,1.9216347E0,0E0,0E0,5.034561E-1,2.0661442E0,1.2261049E0,3.588632E0,5.2391434E-1,0E0,0E0,0E0,0E0,0E0,0E0,0E0,0E0,0E0,0E0],"parents":[2147483647,0,0,1,1,2,2,3,3,4,4,5,5,8,8,9,9,10,10,11,11,12,12],"right_children":[2,4,6,8,10,12,-1,-1,14,16,18,20,22,-1,-1,-1,-1,-1,-1,-1,-1,-1,-1],"split_conditions":[9.967269E-1,8.315778E-3,9.992792E-1,3.3888888E0,7.2463766E-2,3.4246575E-2,5.0552756E-2,-9.465873E-3,8.3333336E-2,7.1752615E0,4.101523E0,2.7654868E-2,7.7922076E-2,-5.0894357E-2,-2.2768734E-2,-8.34707E-3,-4.6197575E-2,5.7463598E-2,-4.079975E-3,2.7309498E-2,-2.618133E-2,4.8086803E-2,4.5077833E-3],"split_indices":[0,0,0,7,8,8,0,0,9,6,7,8,14,0,0,0,0,0,0,0,0,0,0],"split_type":[0,0,0,0,0,0,0,0,0,0,0,0,0,0,0,0,0,0,0,0,0,0,0],"sum_hessian":[2.0908492E2,1.2262966E2,8.645525E1,7.004834E1,5.2581314E1,1.745687E1,6.899839E1,1.3278702E0,6.8720474E1,5.0342194E1,2.2391238E0,1.1514922E1,5.9419475E0,6.470776E1,4.012711E0,4.7340984E1,3.0012057E0,1.1354135E0,1.1037104E0,7.4911356E0,4.0237865E0,4.910686E0,1.0312616E0],"tree_param":{"num_deleted":"0","num_feature":"28","num_nodes":"23","size_leaf_vector":"1"}},{"base_weights":[-1.9373648E-3,-6.6005856E-1,8.350044E-1,-9.737812E-1,-2.081857E-1,3.1050345E-1,5.0403543E-2,-9.9925417E-1,-3.3761963E-1,6.85121E-2,-4.0949225E-1,2.508632E-2,7.818754E-1,-7.4735256E-3,-5.067351E-2,1.8667182E-2,-3.5979282E-2,-9.023387E-3,4.118697E-2,6.223309E-2,-2.6409311E-2,-1.8829204E-2,2.9123569E-2,7.5011835E-3,4.271971E-2],"categories":[],"categories_nodes":[],"categories_segments":[],"categories_sizes":[],"default_left":[0,0,0,0,0,0,0,0,0,0,0,0,0,0,0,0,0,0,0,0,0,0,0,0,0],"id":54,"left_children":[1,3,5,7,9,11,-1,13,15,17,19,21,23,-1,-1,-1,-1,-1,-1,-1,-1,-1,-1,-1,-1],"loss_changes":[1.12964005E2,1.6072628E1,7.882004E0,7.563019E-1,2.71937E0,3.1882362E0,0E0,6.262741E-1,1.3844111E0,4.135953E0,6.1769037E0,3.7756004E0,2.823429E-1,0E0,0E0,0E0,0E0,0E0,0E0,0E0,0E0,0E0,0E0,0E0,0E0],"parents":[2147483647,0,0,1,1,2,2,3,3,4,4,5,5,7,7,8,8,9,9,10,10,11,11,12,12],"right_children":[2,4,6,8,10,12,-1,14,16,18,20,22,24,-1,-1,-1,-1,-1,-1,-1,-1,-1,-1,-1,-1],"split_conditions":[9.932025E-1,8.315778E-3,9.992792E-1,5.8333334E-2,8.291562E-1,